的 0.297923 -0.658065 -0.238218 0.044884 0.179310 -0.027653 -1.165507 -0.875492 0.283871 0.348742 0.052809 0.442101 0.085072 0.505242 0.043189 -0.100970 0.027130 -0.100840 0.067529 0.385660 0.331306 -0.165574 -0.097307 -0.494913 0.107367 0.078462 0.415218 -0.539048 0.135085 0.097437 -0.704479 -0.072105 0.582762 -0.223492 0.178569 0.066132 -0.158328 0.128259 0.754803 -0.266061 -0.197391 -0.137023 0.365162 0.358117 -0.263657 -0.733186 0.418726 -0.281080 0.450557 -0.764716
國 -0.135555 -0.355589 -0.512148 -0.538770 -0.144251 0.137532 -0.779156 -0.830945 0.074935 0.595839 -0.215344 0.537391 -0.390024 0.183786 -0.028933 0.944221 0.176168 0.401399 -0.068309 0.045871 -0.202908 -0.726167 -0.896564 -0.719852 0.099924 -0.037754 0.693497 -1.211137 -0.381469 0.311365 -1.011830 -0.131227 0.208673 -0.031181 -0.853641 -0.183121 0.177544 0.170937 -0.128431 -0.237538 0.047072 0.308829 0.533125 0.847327 0.620592 -0.342730 1.131976 -0.637966 -0.262489 -0.264163
、 0.082396 -0.657263 -1.207393 -0.144245 0.230784 1.002046 -1.105462 0.035373 0.160479 0.051827 -0.299583 0.313573 0.870286 -0.538341 0.241228 -0.464873 -1.073069 -0.268225 -0.107929 -0.483324 -1.137666 0.131086 -0.516753 -0.057704 0.076260 -0.026598 0.236699 -0.095992 -0.293947 1.095100 -0.058547 -0.187187 0.865281 -0.025464 -0.535128 0.650579 0.273245 0.848876 0.798958 0.621955 0.484344 0.184389 -0.018692 0.521365 -0.077423 -0.244880 0.525533 0.513454 -0.596127 0.210581
在 0.278892 -0.292519 0.025977 0.079832 0.170666 -0.329526 -0.501630 -0.790103 0.326047 0.579836 0.071083 0.506993 -0.230854 0.350306 0.084216 0.206511 0.080348 0.230847 0.445555 0.686335 -0.007655 -0.323059 -0.370320 -0.597038 0.301555 -0.069363 0.456672 -0.770955 0.389890 -0.172684 -0.726244 -0.413460 0.657850 -0.065388 0.158780 -0.028802 -0.040832 0.289176 0.415175 0.119595 -0.296485 0.238723 0.398315 0.463608 -0.010526 -0.454434 0.463584 0.000984 0.256812 -0.164310
一 0.575597 -0.300947 -0.059257 0.201884 0.253603 0.025312 -0.636887 -0.810860 0.378290 0.074161 -0.022335 0.406020 0.206198 0.728515 -0.271442 -0.215897 0.165360 -0.133617 0.693636 0.142414 0.593233 -0.526418 -0.355974 -0.401383 -0.131346 0.056784 0.674053 -0.517049 0.189692 -0.200944 -0.803015 -0.182779 0.683924 -0.402724 -0.076318 -0.137337 -0.368310 0.071320 0.783333 0.005766 -0.826258 -0.360530 0.650636 0.574715 0.310857 -0.515138 0.504520 -0.009551 0.291752 -0.521468
為 0.142055 -0.220569 -0.060671 0.011790 0.107879 0.313332 -1.052680 -0.455668 0.315163 0.464652 -0.003269 0.565596 -0.115689 0.010435 0.269368 -0.327390 -0.102568 0.231294 0.304356 0.115834 -0.033059 -0.678496 -0.414244 -0.243286 -0.231286 -0.079301 0.280520 -0.664594 0.439760 -0.008873 -0.883851 -0.265492 0.706186 -0.258868 -0.113426 -0.069691 -0.548618 -0.001544 0.616054 0.048149 -0.054305 0.104985 0.112644 0.452238 0.312600 -0.365341 0.303632 0.021587 0.407766 -0.424246
1 -0.716368 -0.147058 0.116566 -0.397982 -0.259013 -0.323359 -0.021917 -1.037181 0.253098 1.334604 -0.835054 0.307796 -1.007671 0.447794 -0.471763 0.277742 -0.463636 0.279058 0.147585 0.618578 -0.088188 0.132101 -0.962888 -0.011334 0.274067 -0.425085 1.046156 -1.564674 0.039537 -0.765010 -0.738073 -0.335525 0.886414 -0.663327 0.048979 0.458546 -0.500183 0.483818 0.550487 0.135399 -0.170603 0.393205 0.253801 1.220230 -0.048141 0.185884 1.091429 0.140692 0.120602 0.831192
年 0.072836 -0.116890 -0.179814 0.050614 -0.495999 0.030277 -0.198127 -0.569703 0.317112 1.280859 -0.659696 0.551306 -0.729735 0.165963 -0.322783 0.184161 -0.021035 0.291437 0.640715 1.012544 -0.121138 -0.478063 -0.979494 -0.063383 -0.080405 -0.201524 0.783456 -1.467268 0.316059 -0.762146 -0.604557 -0.285590 0.464883 -0.586813 -0.453417 0.374699 -0.668488 0.497848 0.404572 0.395374 -0.654574 0.342494 0.335089 0.697261 0.287294 0.289291 0.893787 0.244165 -0.004461 1.184628
是 0.323239 -0.415625 0.119539 0.162152 0.455316 0.115443 -1.125917 -0.516694 0.461729 0.073374 0.150508 0.471930 0.039960 0.284260 0.140562 -0.286555 0.016874 0.000923 0.521887 0.118547 0.455384 -0.474460 -0.389863 -0.399275 -0.153054 -0.236200 0.181928 -0.345178 0.254432 0.121535 -0.617294 -0.290264 0.851056 0.010829 0.216683 0.005666 -0.429892 0.139931 0.501819 -0.115386 -0.464666 0.015459 0.241749 0.487342 0.120187 -0.772573 0.516574 -0.033421 0.599701 -0.809976
中 0.266023 -0.178701 -0.173086 -0.249088 0.139777 -0.100458 -0.875958 -1.053888 0.403259 0.458337 -0.032840 0.478843 0.000598 0.009370 0.210573 -0.061806 -0.150705 -0.016121 0.032379 0.250289 0.054667 -0.092814 -0.343235 -0.523348 0.031735 0.238979 0.456449 -0.221153 -0.086636 -0.327619 -0.739993 -0.522692 1.155608 -0.076480 -0.387512 0.156561 -0.120420 0.231519 0.662778 0.062980 0.094464 -0.233466 0.695151 0.675490 0.308384 -0.610797 0.656815 -0.292672 -0.264958 -0.382650
大 0.434511 -0.609075 -0.229833 0.077275 0.134533 0.002076 -0.638143 -0.678814 -0.169078 0.441313 -0.001690 1.075049 -0.039818 -0.087014 0.078450 -0.470895 0.200657 -0.005187 0.445016 0.647697 -0.133914 0.211813 -0.309167 -0.394438 0.183253 0.272061 0.717193 -0.396033 -0.106134 0.390088 -0.988188 0.027182 -0.059864 -0.248787 -0.901986 -0.279268 -0.569608 0.231250 0.666212 0.001013 0.451494 -0.212354 0.973301 0.741047 -0.061860 0.010582 1.126121 0.132658 -0.172752 -0.666456
人 -0.044251 -0.333827 -0.484153 -0.025502 0.466415 -0.400105 -0.653914 -1.481210 -0.199971 0.289432 -0.236432 -0.176421 -0.097255 0.392757 0.195777 -0.138271 -0.068612 0.576974 0.481903 0.415126 -0.270805 -0.052521 -0.967338 -0.483698 -0.294183 0.379931 0.367608 -0.999950 0.463582 0.224562 -0.773671 -0.229256 0.501410 0.186350 -0.187139 0.184150 -0.211115 0.060973 0.345858 -0.710996 -0.222585 -0.280458 -0.786384 1.013064 0.349430 -0.250109 0.585781 -0.964201 -0.107292 -0.559803
0 -1.019112 -0.346055 0.328163 -0.363859 -0.334957 -0.374018 0.049645 -1.029967 0.214383 1.275236 -1.003970 0.258495 -1.032073 0.839721 -0.728655 -0.292717 -0.515466 0.454438 0.688579 0.223384 0.031530 0.671108 -1.033768 0.179778 0.677031 -0.401830 0.771472 -1.440806 -0.012677 -0.912628 -0.454979 -0.055651 0.675292 -0.840258 0.164479 0.508864 -0.550463 0.625855 0.881554 -0.235054 -0.134533 0.088277 -0.010265 0.889668 -0.321334 0.173270 1.320639 0.314982 0.328070 0.357894
有 0.306790 -0.581039 -0.165487 0.061157 0.002792 0.151109 -0.970553 -0.892268 0.527813 0.295434 -0.008376 0.096382 0.185655 0.699097 0.008221 -0.578527 -0.231863 -0.088735 0.692156 0.101921 -0.013697 0.100085 0.091386 -0.081268 0.362397 0.135583 0.054086 -0.526387 0.207550 0.119478 -0.703620 -0.160827 0.868918 0.113970 0.067960 0.101939 -0.376435 -0.249849 0.673315 -0.296023 -0.266328 -0.287006 0.122207 0.044137 0.163437 -0.580645 0.521300 -0.454100 0.437780 -0.933367
和 0.089633 -0.684740 -0.618630 0.018447 0.446574 0.414950 -0.900369 -0.510993 0.307435 0.140933 -0.260300 0.451124 0.333053 0.051615 0.189727 0.204736 -0.229058 -0.097878 -0.251844 0.158361 -0.384271 -0.001428 -0.408126 -0.188671 -0.088853 -0.000509 0.254758 -0.444923 -0.330399 0.525709 -0.442525 -0.312222 0.712477 -0.191076 -0.037182 0.343975 0.363857 0.245803 0.499880 0.039312 0.004715 0.516549 0.193699 0.537504 -0.372653 -0.434385 0.370098 0.124101 -0.024888 -0.571651
於 0.333201 -0.226715 -0.062183 -0.215573 -0.069305 0.030133 -0.809934 -0.523052 0.194289 0.686605 -0.127904 0.623571 -0.268799 0.255736 0.094261 -0.069441 -0.054955 0.140817 0.406866 0.633089 0.123431 -0.448712 -0.268281 -0.123432 -0.029366 -0.082811 0.432622 -0.648939 0.272049 0.094049 -0.577599 -0.529364 0.648031 -0.114097 -0.049411 0.126658 -0.177906 -0.050668 0.183925 0.236148 -0.068284 0.568454 0.256431 0.296169 -0.102210 -0.356119 0.277692 -0.099148 0.256815 -0.289448
學 0.459743 0.008653 0.191306 1.117077 0.057033 0.217602 -1.789039 -0.346957 0.956769 0.022626 0.497594 0.681848 0.390064 -0.152868 0.277679 0.312859 -0.454115 -0.410213 0.521444 0.985142 0.399654 0.203671 -0.090772 0.253081 -0.188922 1.060535 0.556780 -0.701453 -0.755200 -0.256740 -0.806654 -0.385706 0.608122 0.357020 0.055462 0.392169 -1.182724 -0.699352 0.700644 -0.798534 0.198877 0.567901 0.235803 1.436275 -0.530342 -0.247080 1.296728 0.038289 -1.400162 -0.126109
以 0.095201 -0.373343 -0.327800 0.307985 -0.204986 0.301110 -0.784292 -0.647851 0.197359 0.280477 -0.072192 0.004221 -0.167813 0.269241 0.122891 -0.042414 0.014026 0.024361 0.060292 0.151334 0.097272 -0.153488 -0.000052 -0.351013 0.198389 0.100286 0.320171 -0.574650 0.532420 0.018320 -0.635868 0.010630 0.867090 -0.294397 -0.022502 0.111686 -0.348204 -0.157201 0.394123 -0.062243 -0.244628 -0.231086 0.377684 0.153679 0.028347 -0.667910 0.290612 -0.055251 -0.147656 -0.456817
地 0.467581 -0.334799 0.043445 -0.024927 0.263143 -0.241045 -0.826386 -1.159262 -0.256461 0.639648 -1.148683 0.514202 -0.232428 0.004230 -0.032092 -0.660880 -0.222496 0.491698 -0.001831 0.481510 -0.009597 -0.342760 0.250679 -0.704154 0.504681 -0.203609 0.435196 -0.288033 0.352900 0.795664 -1.047806 -0.584539 0.123270 0.379085 -0.142792 -0.363387 -0.195971 -0.121329 0.743260 0.399395 0.417597 0.318450 0.587695 -0.106836 -0.414302 -0.130256 0.488966 0.405885 0.136694 -1.260947
9 -0.538190 -0.062218 0.041985 -0.318017 -0.339088 -0.262632 0.059937 -0.746322 0.152880 1.283698 -0.886035 0.461000 -0.784552 0.436993 -0.487317 0.424086 -0.268718 0.329620 0.022720 0.541700 -0.042730 0.152388 -1.050756 -0.048669 0.037189 -0.548248 1.066503 -1.383355 -0.052455 -0.757571 -0.930632 -0.341275 0.827547 -0.450690 -0.015031 0.286891 -0.559705 0.460132 0.455165 0.136849 -0.116944 0.673219 0.193305 1.385649 -0.060715 0.283273 0.975143 0.152185 0.054300 0.852256
2 -1.038153 0.132504 0.143012 -0.524526 -0.356382 -0.295985 -0.061815 -0.953060 0.472411 1.217234 -0.826249 0.364070 -1.139762 0.533928 -0.729462 -0.198085 -0.550050 0.415009 0.525350 0.449968 -0.146292 0.235201 -0.963811 0.100509 0.348924 -0.544961 0.900010 -1.428576 0.039582 -0.907772 -0.488118 -0.303829 0.711141 -0.826485 -0.040898 0.601816 -0.540821 0.476169 0.645667 0.054731 -0.095144 0.410035 0.242919 0.960280 0.128712 0.201789 1.122602 0.296302 0.262604 0.838402
時 0.786407 -0.164580 -0.167591 -0.133413 -0.565617 -0.216256 -0.537769 -0.511655 0.176705 0.959496 -0.015945 0.464486 -0.365323 0.235165 0.133999 0.164900 0.267073 -0.031879 0.475736 1.020722 0.094559 -0.788959 -0.395187 -0.472827 0.422103 0.118738 0.056552 -0.505306 0.907241 -0.649046 -0.674507 -0.238996 0.433217 -0.126378 0.268334 -0.039452 0.010920 0.167092 0.504680 0.212493 -0.516882 -0.120028 0.308785 0.503947 0.604949 -0.412964 0.393376 -0.369263 0.244319 0.107763
會 0.761288 0.208752 -0.728690 -0.088633 0.434009 0.631458 -0.076231 -0.794694 0.946573 -0.115761 0.494897 0.392196 -0.917829 0.435245 0.111458 0.082145 0.678893 0.458351 -0.447635 0.416704 0.190829 -0.122240 0.094687 -0.632770 0.264564 0.336519 0.027441 -0.482098 -0.153500 -0.223992 -0.379023 -0.559231 1.143985 -0.201409 -0.031584 -0.058812 -0.399401 0.728675 0.573495 -0.963333 -0.490570 0.245650 0.284050 1.244942 0.595695 -0.435681 0.412288 -0.505035 -0.204015 -0.449984
了 0.358339 -0.480605 0.081947 0.389043 0.073212 -0.236885 -0.466813 -0.831062 -0.206655 0.554971 -0.139224 0.039937 -0.367618 0.633292 -0.180542 0.270881 0.124326 0.007880 -0.108570 0.688998 0.293080 -0.203453 -0.396174 -1.007544 -0.015177 0.083730 1.026569 -0.458035 0.140433 -0.435216 -0.705888 0.139042 0.382377 -0.284800 0.005415 -0.167103 -0.103018 0.056899 0.324816 -0.341788 -0.273148 0.014629 0.043887 0.149639 -0.225001 -0.499074 0.439318 -0.021143 -0.188229 -0.035764
個 0.279390 -0.070048 -0.106551 0.007921 0.261347 0.060855 -0.479325 -1.219677 0.627923 0.096072 -0.262039 0.864339 0.363200 0.775036 -0.322416 -0.246223 0.219610 0.131340 0.626393 0.128442 0.726221 -0.475718 -0.310954 0.101668 -0.073756 0.148640 0.632919 -0.634855 -0.383278 -0.324463 -0.786049 -0.396101 0.880164 -0.669490 0.130586 0.045975 -0.396348 -0.291962 0.570915 -0.068188 -0.553118 -0.106416 0.425491 0.726082 -0.047024 -0.412491 0.503496 -0.000038 0.407224 -0.890759
成 0.224687 -0.712039 -0.161300 0.473355 0.042835 0.248291 -0.310151 -0.563293 0.262743 0.729456 0.551211 0.602121 0.263052 0.424969 0.135556 -0.429359 0.007430 0.192620 -0.129574 0.252404 0.091792 -0.392597 -0.397502 -0.767864 0.141087 0.039715 0.611321 -0.332257 -0.069155 -0.321841 -0.828820 0.027684 1.062303 -0.675705 -0.042547 -0.089298 -0.513354 0.072809 0.532246 -0.067207 0.205012 0.278644 0.459262 0.580038 0.124498 0.007206 0.045404 -0.334447 0.252529 -0.100842
後 0.263617 -0.247814 -0.125428 0.342069 -0.213284 -0.558786 -0.269391 -0.445771 -0.082081 0.740180 0.575404 0.205696 -0.450655 0.378757 0.373679 0.436313 0.446334 0.104131 0.390405 0.739891 -0.174672 -0.586754 -0.510196 -0.785590 -0.127783 0.155415 0.656739 -0.576422 0.693788 -0.378943 -0.923844 -0.367948 0.366745 -0.290024 -0.222991 0.307385 -0.124768 0.224675 0.010779 0.475612 -0.110596 0.039174 0.304361 0.327468 0.531973 0.143592 0.167005 -0.309062 -0.056203 0.498487
主 0.304413 -0.090880 -0.381901 0.015650 0.682682 1.083598 -0.424987 -1.058893 0.005045 0.167872 0.125198 0.393938 -0.370076 0.083271 0.844842 0.889717 0.027351 0.162578 -0.275722 -0.290308 0.206127 -0.578218 -0.680925 -0.549111 -0.262989 0.114463 0.271818 -0.646125 -0.470045 0.489165 -0.780791 -0.553892 0.779321 0.372307 0.143838 0.169656 -0.270655 0.497991 0.862288 -0.702319 -0.125776 0.244334 0.332183 0.657347 0.428847 -0.329694 0.511125 -0.365139 0.402219 -0.635248
不 0.117180 -0.207926 -0.489023 0.101807 -0.084099 0.020276 -0.761759 -0.451649 0.113221 0.103957 0.305791 -0.194999 -0.323537 0.938163 0.110008 -0.549001 0.448178 0.375944 0.523643 0.479221 0.144106 -0.068782 0.394200 -0.914528 -0.126474 -0.043529 0.324957 -0.257175 0.981888 0.151974 -0.405448 0.105489 0.747124 0.249983 0.434842 -0.043447 -0.469832 -0.536398 -0.249766 -0.434856 0.018537 -0.184293 -0.243662 0.146268 0.708749 -0.649039 0.420420 -1.009604 0.014957 -0.801178
之 0.251774 -0.021403 -0.461056 0.060847 0.310908 -0.072630 -0.821580 -0.450890 -0.055983 0.661958 0.481853 0.767891 0.223999 -0.079241 0.463788 -0.668167 0.157621 0.047685 0.550024 0.084512 0.081495 -0.465895 -0.119104 -0.311845 -0.158659 0.087988 0.350358 -0.662035 0.481612 -0.075167 -0.699061 -0.334153 0.401993 -0.083187 -0.254832 0.358126 0.002270 0.055612 0.131946 0.283176 -0.073740 -0.106851 0.457598 -0.157023 0.452878 -0.008241 0.288154 -0.168870 -0.021537 0.015997
民 0.511031 -0.085694 -0.609394 -0.136651 -0.011019 0.164857 -0.207807 -1.647199 -0.669745 0.687035 -0.882485 0.516832 -0.340285 0.140113 0.360751 0.300132 -0.024806 1.318721 -0.611003 0.175632 -0.117318 -0.497163 -0.985798 -0.585146 -0.660490 0.548459 0.465465 -0.928281 -0.207329 0.355574 -0.332534 -0.160028 0.780483 0.475285 -0.330841 -0.231081 -0.065081 0.289364 0.137208 -0.588323 0.324640 0.064598 -0.418285 1.201956 1.314684 0.039845 0.344506 -1.081976 0.060413 -0.946903
政 0.159094 0.340823 -0.783042 0.159256 -0.562633 0.603722 -0.498795 -0.886181 -0.144844 0.320874 -0.092395 0.266410 -0.234328 -0.163891 0.100375 0.599188 0.363010 0.627572 -1.128983 0.034002 0.631020 -0.698189 -0.374444 -0.266130 -0.147175 0.042742 0.514933 -0.836003 -0.130807 0.360314 -1.160508 -0.728374 0.522628 0.287007 -0.146209 0.057430 -0.479253 -0.140229 0.118776 -0.476101 -0.136024 1.315623 0.980932 0.543558 0.675194 0.328929 0.304436 -1.807325 0.397342 -0.261248
上 -0.237387 -0.226830 0.281208 -0.408337 -0.286549 0.006768 -0.500538 -0.696592 0.127532 0.215819 0.196447 0.298124 -0.137626 0.286387 0.170757 0.180664 -0.012066 0.166445 0.277472 -0.101595 0.316324 -0.028873 -0.028451 -0.616917 0.761321 0.006549 0.141412 -0.582984 0.131298 -0.109224 -0.593764 -0.130603 0.835359 0.077136 0.070309 0.036719 -0.200233 -0.030928 0.813413 0.156096 -0.557797 -0.441283 0.941262 0.190300 -0.107141 -0.414817 0.519834 -0.198643 0.245114 -0.379977
多 0.065495 -1.035287 -0.449961 0.310718 0.152307 0.089578 -0.563873 -1.144922 0.501424 0.507303 0.039934 0.234749 0.148509 0.635092 0.184180 -0.671801 0.291905 0.215292 0.296609 0.851014 0.028671 0.156920 -0.285564 0.014749 0.570189 -0.231986 -0.263040 -0.926345 0.542902 0.169914 -0.599390 0.326426 0.217357 -0.068886 -0.186373 -0.019712 -0.170962 0.388014 0.690886 -0.115306 0.048982 -0.165960 -0.077661 0.006343 -0.005888 -0.335292 0.462777 -0.646295 -0.185222 -0.810793
部 0.117049 -0.063369 -0.851722 0.205338 0.164875 0.293599 -0.348617 -1.237987 0.517202 0.112144 -0.642898 0.668080 0.177519 0.374582 0.077107 -0.450520 -0.186492 -0.162907 0.167294 0.048183 0.160924 -0.741108 -0.766887 0.038810 0.255889 0.454581 0.117678 0.074029 0.100263 0.511478 -1.122195 -0.527998 0.448675 -0.356966 -0.454646 -0.294202 0.110081 0.282375 0.254488 0.318915 0.896681 0.114908 0.785905 -0.019181 -0.074260 -0.084946 0.394799 -0.518334 -0.175536 -0.326208
軍 -0.747501 0.876145 -1.238133 -0.035629 0.375104 0.340253 0.447340 -1.063195 -0.259159 1.024859 -0.101596 -0.355753 -0.181173 -0.261542 -0.236352 0.814981 0.182753 -1.087128 -0.069773 -0.246278 -0.510322 -0.394404 -1.345492 -1.562170 0.211038 0.555918 1.350019 -0.259055 1.128051 0.853079 -1.094954 -0.254483 0.131556 -0.831212 -0.979977 -0.124424 0.381611 -0.359460 -0.272874 0.759048 0.609969 -0.364997 0.690024 0.831191 0.669048 -0.322997 0.714802 -1.040439 -0.285861 0.411491
發 1.207504 -0.709244 -0.462392 0.219269 -0.697885 -0.259874 -0.505393 -0.393760 -0.404599 1.098706 0.298753 0.581609 -0.025674 0.013290 0.347753 0.069671 0.222183 -0.239451 -0.246878 0.442594 0.523054 0.264406 -0.349262 -1.103928 0.210822 -0.090653 0.833001 -0.147445 0.138642 -0.396963 -0.676565 0.274549 0.566584 0.048579 0.542578 0.613541 -0.209825 0.480574 0.089008 0.280767 -0.190011 0.129260 0.136916 0.860026 -0.185265 -0.764501 0.717535 -0.001454 0.478417 0.361317
與 -0.025577 -0.571236 -0.870871 -0.156547 0.176284 0.468427 -0.949127 -0.406944 0.294737 0.193079 0.345482 0.532573 -0.159723 0.023362 0.277782 0.223383 -0.315926 0.143679 0.001362 -0.039999 0.113160 -0.315482 -0.214673 -0.501825 -0.007865 0.318412 0.150170 -0.550955 0.108180 0.540337 -0.343278 -0.365140 0.506111 -0.129155 -0.155317 0.468598 0.203554 -0.066388 0.211665 0.169881 -0.015428 0.550176 0.338040 0.245614 0.049005 -0.119366 0.443387 0.138461 0.019316 -0.018526
「 0.275052 0.237869 0.029157 -0.162410 0.295043 0.322513 -0.905180 0.037272 -0.162279 -0.204505 0.388738 0.777643 0.492727 -0.235480 0.103449 -0.427583 0.174659 0.062154 0.229178 -0.529170 -0.141507 -0.796500 -0.435862 -0.361423 -0.711666 0.090274 0.695578 -0.470883 0.458139 0.150945 -0.483723 0.140017 1.075215 0.209766 -0.010607 -0.080641 -0.748442 0.281958 -0.174999 -0.432012 -0.383225 -0.458779 -0.027973 0.100489 0.598218 -0.393611 0.817933 0.032941 0.476247 0.082830
」 0.313383 0.353482 -0.085689 -0.243311 0.319687 0.254898 -0.977575 -0.071572 -0.143251 -0.100925 0.561621 0.766380 0.461267 -0.281762 -0.021822 -0.246197 0.156488 -0.040247 0.222738 -0.649802 -0.084732 -0.782632 -0.505050 -0.141434 -0.656942 0.228242 0.628302 -0.432613 0.458069 0.214669 -0.614398 0.243342 1.119402 -0.085854 0.250919 0.205987 -0.726995 0.346432 -0.163226 -0.330087 -0.496426 -0.326834 -0.021486 0.026869 0.610610 -0.390451 0.717662 -0.093531 0.444751 -0.039423
哪 0.535164 -0.430906 0.160967 0.015691 -0.101551 -0.018819 -0.659415 -0.607304 0.383424 0.141169 -0.293041 0.790476 0.139507 0.048686 0.052790 0.183103 -0.047944 -0.118365 0.398175 0.435938 0.250059 -0.858185 -0.594792 -0.338947 -0.016745 -0.112338 0.499846 -0.351173 -0.130294 0.071026 -0.961902 -0.313116 0.634773 -0.166435 -0.234170 -0.157190 -0.125789 0.315472 0.349201 -0.196818 -0.642228 0.329070 0.491757 0.580635 -0.101997 -0.487387 0.423516 0.044388 0.256673 -0.202393
其 -0.069553 -0.473655 -0.361795 -0.061089 0.219844 -0.156459 -0.918773 -0.933473 0.263728 0.054173 0.359877 -0.035247 -0.012611 0.575106 0.068610 -0.173041 0.135910 0.030095 0.371989 0.096990 -0.177811 -0.147477 0.146107 -0.186839 -0.088300 0.382553 0.521232 -0.521337 0.156918 -0.010873 -0.802718 -0.167001 0.588337 -0.039862 -0.120503 0.346509 -0.262754 -0.070893 0.475746 -0.336902 0.402855 -0.161751 0.070706 -0.048677 0.011932 -0.493320 0.529102 -0.238806 0.244585 -0.524578
生 0.947574 -1.211593 -0.606160 0.588876 0.312754 -0.474877 -0.433119 -0.419704 0.493744 1.065877 0.478131 0.049842 -0.235419 -0.239441 -0.199529 -0.458051 0.212476 -0.435419 0.240807 0.789727 0.291557 0.757694 0.066957 -0.205256 -0.336948 0.712354 0.531041 -0.488622 -0.201889 -0.150181 -0.013348 -0.123666 1.246143 0.319399 0.005946 0.050648 -0.622966 -0.030026 0.771630 -0.620268 -0.301536 0.145315 -0.488485 0.806397 -0.561615 -0.433983 0.220435 -0.445572 0.036767 -0.453633
日 -0.392462 0.356698 -0.228915 -0.235588 -0.344226 -0.373127 0.116912 -0.651021 0.003425 0.991161 -1.081355 0.755899 -0.733801 -0.138616 0.069531 0.254793 -0.098343 -0.008610 0.207222 0.956472 0.009505 -0.194294 -0.418501 -1.112473 -0.081510 0.120557 0.852652 -1.080462 0.296407 -0.301001 0.235695 -0.009522 0.959998 0.004482 -0.018563 0.145312 0.261533 0.332797 0.334775 0.390585 -0.483933 0.491194 0.375805 0.850404 0.701070 -0.138521 0.868879 0.122729 0.097258 0.930849
5 -1.084418 -0.210250 0.212500 -0.527068 -0.169853 -0.466172 0.081183 -0.958238 0.221834 1.290801 -0.931302 0.116475 -0.948759 0.575883 -0.543721 -0.176073 -0.620734 0.432730 0.483783 0.312761 -0.111187 0.452381 -0.798133 0.314450 0.385267 -0.384468 0.933814 -1.559398 0.060801 -0.534646 -0.369649 -0.284765 0.795202 -0.827572 0.089214 0.330509 -0.403214 0.311242 0.800068 0.165189 -0.003566 0.332834 0.239960 1.136464 -0.046173 0.297404 1.136196 0.174127 0.255852 0.779261
分 0.052093 -0.810283 -0.359031 0.603730 0.253274 0.169711 -0.431299 -1.119507 0.721393 0.265251 -0.252701 0.161179 0.406533 0.655310 -0.099728 -0.840608 0.044870 0.069936 0.013721 0.229203 0.275352 -0.675169 0.151082 0.406271 0.018735 0.736664 0.223107 -0.468086 -0.002143 -0.078398 -0.628235 -0.703384 0.636513 -0.399684 0.298452 0.393328 -0.300296 -0.058558 0.455079 0.614879 0.492654 -0.081466 0.808036 0.509372 0.254984 -0.396150 0.255465 0.194510 0.188234 -0.975097
區 0.759227 0.334588 -0.209195 0.033667 0.054333 -0.162710 -0.341460 -1.062373 0.212457 0.841038 -1.374919 1.203768 0.091443 -0.523723 -0.277045 -0.763208 0.169076 0.551343 0.158461 -0.443918 -0.299635 -0.139282 -0.103398 0.133993 0.369282 -0.590109 0.160268 -0.696667 -0.052936 0.951600 -1.399283 -1.171879 0.423288 0.514457 0.138363 -0.081568 -0.464477 -0.022178 0.567277 0.976544 0.690425 0.573227 0.529131 0.603975 -0.413086 -0.269244 0.236943 0.182150 -0.240935 -1.186431
行 0.730512 0.268447 -0.919176 0.055570 -0.449884 0.403225 -0.024892 -0.775386 0.117336 0.224551 -0.497372 0.377761 -0.080509 -0.307086 -0.134988 -0.072043 0.232834 0.710068 -0.204854 0.062614 -0.034199 0.181474 -0.197811 -0.628068 -0.072850 -0.170373 -0.046866 0.043631 0.239686 0.128789 -1.090567 0.018431 0.805006 -0.368768 0.096752 0.252066 -0.226562 0.170264 0.533142 -0.650317 -1.134500 0.451729 1.306282 0.554483 -0.194601 -0.922781 0.530725 -0.373917 0.215650 -0.040111
8 -0.737549 -0.190504 0.191369 -0.425107 -0.163062 -0.418814 0.048148 -0.819532 0.213169 1.367847 -0.855437 0.205035 -0.856369 0.518834 -0.431976 0.260229 -0.440984 0.416608 0.207487 0.496511 -0.118816 0.120284 -0.937005 0.181977 0.102881 -0.622706 1.210035 -1.604767 0.077130 -0.588766 -0.578041 -0.475284 0.660113 -0.690748 0.074306 0.540337 -0.393039 0.499422 0.636900 0.019538 -0.272515 0.471765 0.106479 1.040257 -0.182663 0.398719 1.031689 0.072861 0.132081 0.869514
到 -0.173806 -0.588055 0.131495 0.041223 -0.358682 -0.120264 -0.451445 -0.884395 -0.240950 0.252687 -0.246960 0.059479 -1.107068 0.737182 -0.217282 0.396477 0.317368 0.321047 0.221455 0.994913 -0.088965 0.170509 -0.269205 -0.247173 0.765612 0.175254 0.293809 -0.469447 1.107929 -0.468763 -0.521818 -0.222046 0.401684 -0.116635 -0.189157 0.399078 -0.654712 0.118534 0.118964 0.526223 -0.779711 -0.426875 -0.035286 0.404842 -0.399923 -0.434487 0.217894 -0.223074 -0.176843 -0.163963
而 0.229603 -0.421767 -0.307020 0.063179 0.031503 -0.144024 -0.658346 -0.520968 -0.019662 0.530013 0.448866 0.203257 -0.246303 0.559210 0.343514 -0.103190 0.263652 0.137348 -0.139767 0.367411 0.185050 -0.217691 0.069959 -0.623062 -0.137516 -0.079031 0.496838 -0.225439 0.752254 0.030689 -0.616057 -0.036466 0.688751 -0.097548 0.328361 0.249347 -0.414170 -0.073620 0.110412 -0.047477 0.056735 -0.004146 -0.033501 0.029921 0.170851 -0.228231 0.062009 -0.477593 0.187469 -0.659596
3 -0.992435 -0.159429 0.199731 -0.411935 -0.205358 -0.429303 0.013047 -1.038041 0.235727 1.149256 -0.999184 0.176579 -0.833686 0.618328 -0.360756 -0.279798 -0.451075 0.348742 0.541995 0.149830 -0.300975 0.400457 -0.901499 0.475064 0.252753 -0.379831 0.915597 -1.354854 0.097007 -0.753151 -0.540820 -0.204017 0.627230 -1.062683 0.156931 0.567898 -0.705962 0.448717 0.698922 0.161400 0.151838 0.281233 0.334606 1.026383 -0.218629 0.337432 1.115498 0.227216 0.411961 0.778272
法 -0.211483 -0.345958 -0.283054 0.998968 0.073670 0.100519 -0.673396 -0.203333 -0.054213 -0.416135 -0.319324 0.114360 -0.209337 0.880020 0.089864 0.165219 -0.276022 0.403966 -0.449504 0.727218 -0.220490 -0.771192 -0.105215 -0.289493 -0.583732 -0.081508 0.921796 -0.169258 0.220045 0.215515 -0.941026 -0.094864 0.620669 -0.276142 -0.254991 0.267664 -0.130677 0.048969 0.130302 -0.794432 -1.021966 0.559092 1.027323 0.484766 0.881948 -0.645859 0.450983 -0.667622 -0.402200 -0.528068
出 0.482643 -0.532407 -0.087270 0.021948 -0.363316 -0.345338 -0.438737 -0.850582 -0.088139 0.000951 0.232776 -0.311382 -0.216086 0.104108 0.179094 -0.034724 0.019369 0.147563 -0.189131 0.277726 0.302357 -0.064530 -0.267916 -0.833656 0.079315 0.365472 0.328557 -0.541900 0.575492 -0.626701 -0.759754 0.243462 0.718894 0.127622 0.238472 0.045913 -0.389104 0.326426 0.258282 -0.367250 -0.013862 -0.276639 0.428756 0.501329 -0.173896 -0.688145 0.465072 -0.110336 0.208404 0.286187
家 0.381970 -0.280503 -0.056670 0.186244 -0.003466 0.243259 -1.287012 -0.980763 0.025724 -0.247131 -0.267123 0.223725 0.299173 0.366763 0.345792 0.638832 -0.215748 0.224572 0.418882 -0.028348 -0.113135 -0.214616 -0.914439 -0.114748 0.227446 -0.171532 0.095914 -0.855436 -0.555156 0.222933 -0.693397 0.130236 0.239219 0.162112 -0.287400 0.186531 -0.554594 -0.362810 0.357777 -0.723927 -0.418013 0.155673 -0.323836 0.434509 -0.239814 -0.541730 0.461380 -0.217452 0.004415 -0.189989
由 0.302421 -0.273038 -0.115762 0.252690 0.127545 0.342557 -0.353502 -0.622093 0.514779 0.394442 0.224566 0.454616 -0.345975 0.152645 0.206394 0.329801 -0.100866 0.410273 -0.062970 0.226925 0.286795 -0.424615 -0.287292 -0.116853 0.010407 0.161435 0.221136 -0.435909 0.021558 0.117536 -0.781264 -0.382395 0.959471 -0.290013 -0.019522 -0.049027 -0.052052 0.253690 0.423310 -0.142657 0.022345 0.458866 0.542665 0.353120 0.208888 -0.354989 0.295985 -0.346128 0.601905 -0.271084
斯 0.444730 -0.629651 -0.557161 0.865041 1.141070 -0.052751 -0.589429 -0.550791 0.347112 -0.795591 -0.132900 0.212503 -0.424388 0.350612 -0.102317 1.514975 -0.509689 0.088432 0.304096 0.902162 0.531109 -0.478526 -1.022259 -0.246098 -0.079371 -1.149345 0.602310 -1.315654 0.272392 0.595589 -1.096007 -0.042538 -0.744316 0.015553 0.283395 0.290418 0.878488 0.903595 -0.227969 0.380615 -0.035260 0.654396 -0.541314 0.443623 -1.042260 -0.249982 0.487043 0.293535 0.022354 -0.064124
對 0.008760 -0.399118 -0.589873 -0.199778 0.094819 0.630850 -0.687629 -0.799347 -0.096559 0.317878 0.461847 0.163736 -0.530883 0.373176 0.137658 0.312653 0.324308 -0.187608 -0.405573 0.061747 0.476529 -0.095116 -0.074557 -0.596545 -0.298509 0.453010 0.632768 -0.485220 0.536608 0.033168 -0.261889 -0.224597 0.358582 0.613077 0.349235 0.586366 0.047413 -0.174393 -0.006144 -0.280511 -0.358768 0.444719 0.287215 0.205016 0.261802 -0.637101 0.763390 -0.295625 0.266592 -0.781028
方 -0.164417 -0.480952 -0.464416 0.036993 -0.389382 0.121272 -0.694634 -0.575849 0.176744 0.057136 -0.369546 0.276408 0.120120 0.666280 0.154914 -0.092822 -0.419832 0.097074 -0.467238 0.034397 0.483968 -0.626051 -0.138842 -0.390401 0.430737 0.418440 0.626119 -0.569194 0.497278 0.433099 -0.573402 -0.366274 0.550722 -0.290232 0.370268 0.576737 0.029983 -0.259880 0.360125 -0.050201 -0.159519 -0.278003 0.387526 0.184246 0.298717 -0.384726 0.763934 0.011131 -0.537455 -0.678168
及 0.056752 -0.437724 -0.647794 0.201496 0.033687 0.317357 -0.970847 -0.569594 0.442332 0.036878 -0.218364 0.446728 0.179812 -0.073849 0.085465 0.370221 -0.504257 0.043682 -0.010636 -0.054869 -0.397513 0.097223 -0.289748 -0.168379 0.116751 0.117254 0.356295 -0.298313 -0.397685 0.316947 -0.622462 -0.090854 0.830639 -0.051646 -0.154552 0.480882 -0.087368 0.337584 0.235812 -0.125040 -0.011264 0.297421 0.178498 0.182645 -0.393808 -0.293406 0.437716 -0.077989 -0.247336 -0.582097
月 -0.341776 0.774829 -0.386734 -0.467695 -0.264219 0.080087 0.480111 -0.659630 0.060016 0.841652 -0.879281 0.699018 -1.128549 0.347764 -0.379136 0.205367 -0.190651 -0.166718 0.013084 1.065023 -0.274315 -0.194038 -0.859275 -0.442027 -0.144234 0.075544 1.132666 -1.057610 0.518430 -0.986217 -0.056493 -0.486852 1.083750 -0.322873 -0.215897 0.236704 -0.293791 0.574642 0.476836 0.742129 -0.322077 0.601013 0.505121 0.969302 0.492562 0.254453 0.508409 0.267480 0.218243 1.514621
西 -0.081183 -0.693058 0.081308 0.100200 0.447938 -0.334812 -0.814316 -0.310375 -0.146010 0.544326 -0.755326 1.175513 -0.118104 -0.075247 0.236173 0.119626 -0.652164 0.355828 0.020445 0.699011 0.020930 -0.847906 -0.880047 -0.253633 0.696133 0.207631 -0.110797 -0.791801 0.471388 1.560293 -0.672500 -0.890129 -0.039906 -0.281606 -0.589637 0.073261 0.064367 0.324059 -0.167176 1.468705 0.306578 0.308029 0.574141 -0.088760 -0.477313 -0.202067 0.711428 0.216776 -0.652902 -0.251980
代 0.684565 -0.636477 -0.086188 0.121033 -0.330714 0.000790 -0.907985 -0.249753 0.080427 0.697527 0.302200 0.190403 0.774679 0.038785 0.754617 0.491067 0.417985 0.309949 0.141356 0.080293 0.224366 -0.938828 -0.505495 -0.139443 0.455566 0.165688 -0.209435 -0.861722 0.016995 -0.782291 -0.556371 -0.531184 0.310459 -0.187900 0.244823 0.228005 -0.404609 0.406877 0.647499 0.135498 -0.377860 -0.147475 0.382556 0.687239 0.649746 -1.031678 0.844546 -0.205625 -0.184591 0.209774
4 -1.203525 -0.212826 0.154763 -0.559469 -0.141326 -0.473103 0.106872 -1.089128 0.335898 1.197174 -1.032538 0.091628 -0.989340 0.645379 -0.612561 -0.177786 -0.513418 0.196371 0.435080 0.297707 -0.161684 0.305173 -0.962276 0.206282 0.254866 -0.417019 0.982135 -1.448209 0.159958 -0.557126 -0.494232 -0.413910 0.626789 -0.865216 0.137668 0.428602 -0.454440 0.446464 0.642896 0.085746 0.047869 0.218811 0.351963 1.072693 -0.089227 0.191732 1.194306 0.230587 0.255640 0.777937
用 0.382486 -0.943661 0.036427 0.464647 -0.605421 0.243178 -0.757016 0.025377 0.542334 -0.070506 -0.171561 -0.276429 -0.020580 0.351896 0.171749 0.260812 -0.257593 -0.479044 -0.041664 -0.075323 -0.001278 -0.320378 -0.057193 -0.450311 0.200268 0.102742 0.404632 0.544818 0.536149 -0.115394 -0.589524 0.377103 1.235195 -0.652318 0.561750 0.296549 -0.043848 -0.042306 0.464211 -0.211428 -0.003616 -0.351177 -0.047061 0.078841 0.496087 -1.189158 0.304377 0.443586 0.015710 -1.076971
公 0.053208 0.228437 -0.302064 -0.219548 -0.681957 0.228745 -0.499158 -0.871492 -0.165589 -0.126354 -0.537683 1.061502 -0.958436 0.569680 -0.435454 -0.057576 -0.920042 0.846088 0.605963 -0.099675 -0.524187 0.575870 -0.091881 0.577737 0.821362 0.066349 0.443243 -0.927475 -0.586025 0.107827 -1.218222 0.041470 0.499979 -0.367883 -0.131723 0.669507 0.145963 0.616789 0.902146 -0.481500 -0.002757 0.072819 0.450178 -0.183602 0.393476 0.390216 0.778368 0.478498 0.585442 -0.202593
文 0.348002 -0.158073 -0.158923 0.432921 0.147422 -0.052948 -1.852324 -0.243348 0.214707 0.349987 0.059747 0.948666 0.412434 -0.183341 0.764697 0.795535 -0.177970 -0.011421 -0.064107 0.221752 0.128250 -0.915993 0.149721 -0.027875 0.123793 0.057146 0.107772 -0.276718 -0.327517 -0.397305 -0.515751 0.432650 0.391072 0.417005 0.374910 0.242007 -0.424474 0.572679 0.937245 -0.154686 0.165795 -0.406023 -0.156262 0.374954 0.261378 -0.480419 1.394940 0.170760 -0.764489 0.332050
動 1.059652 -0.849762 -1.108635 -0.246037 0.166574 0.556543 -0.325121 -0.437336 -0.078773 1.005307 0.602618 0.075636 0.248502 -0.095493 -1.188600 0.316038 0.479868 0.031760 -0.471681 0.131838 0.909023 0.726896 -0.395824 -0.715471 -0.190211 0.719742 0.150108 -0.121035 0.838668 0.008122 -0.272640 0.058410 0.946699 -0.453283 0.132382 0.449410 -0.526755 1.012285 0.867470 -0.634471 -0.712946 0.447287 0.448734 0.116327 -0.521326 -1.210634 0.175361 0.166875 -0.059993 -1.096802
市 1.455057 0.119542 0.216468 -0.460490 -0.251782 -0.159392 -0.009877 -0.774695 -0.119181 0.371831 -1.437714 1.008957 -0.282830 -0.246332 -0.410646 -1.160424 0.251365 0.432389 0.373092 -0.565206 0.086670 0.225913 -0.242980 -0.012542 0.811726 -1.333251 -0.039734 -1.094504 -0.628975 0.824583 -1.386402 -1.172988 0.447280 0.148487 0.436471 0.083989 -0.328255 -0.299452 1.084318 0.620176 0.223598 0.544127 0.180580 0.339772 0.196169 -0.262429 0.810277 0.228765 -0.278656 -0.226768
來 0.508427 -0.841407 -0.132851 0.292421 -0.252936 -0.205516 -0.613029 -0.546517 0.119753 -0.045990 0.178435 -0.090853 -0.267406 0.265078 0.199927 0.207435 0.092132 0.348620 -0.162703 0.630997 0.371005 -0.407178 -0.238033 -0.754843 0.231219 0.494758 0.062901 -0.340933 0.726891 -0.309361 -0.644459 0.250781 0.886340 -0.033360 0.210159 -0.032813 -0.377780 -0.353963 0.042579 -0.055229 -0.372177 -0.191641 -0.048945 0.317212 -0.145187 -0.848994 0.250065 0.039323 -0.046038 -0.582510
南 -0.142191 -0.390648 -0.240385 -0.809027 -0.011545 0.193195 -0.745434 -0.359743 -0.061566 0.710202 -0.542197 1.111730 -0.192619 -0.123671 0.423629 -0.126373 -0.695779 0.425726 0.154269 0.300320 -0.303672 -0.688640 -0.768814 -0.032734 0.482109 0.634368 -0.017184 -0.565123 0.661831 1.209147 -0.779141 -1.463060 0.175566 0.194456 -0.962879 -0.101731 -0.050238 -0.102953 -0.010095 1.594244 0.684742 0.014880 0.814539 -0.017112 -0.169111 -0.091041 0.813888 0.231641 -1.037097 -0.156649
6 -0.818019 -0.186655 0.107658 -0.464407 -0.323220 -0.387774 0.058481 -1.093493 0.205747 1.181590 -0.896167 0.234442 -0.865515 0.492439 -0.500649 -0.019035 -0.427113 0.445563 0.521976 0.386378 -0.322441 0.281346 -1.156221 0.404714 0.162853 -0.299592 1.015953 -1.508809 0.051226 -0.796120 -0.481399 -0.469182 0.655318 -0.736892 0.048497 0.584317 -0.253261 0.494203 0.613978 0.165590 -0.223722 0.332231 0.127121 0.984293 -0.148189 0.279286 1.026354 0.316363 0.344828 1.010453
這 0.439142 -0.398416 0.405997 0.267161 0.341921 -0.057474 -0.931192 -1.057604 0.048537 -0.046324 0.424584 0.396561 -0.043150 0.692389 -0.263691 -0.044398 0.308680 0.123608 0.111261 0.256049 0.883574 -0.499384 -0.082020 -0.450076 -0.176353 0.034418 0.634130 0.035086 0.399347 -0.192668 -0.721159 0.059247 0.614249 -0.327814 0.493745 -0.027092 -0.186708 -0.362967 0.373236 -0.291063 -0.843036 -0.458530 0.226415 0.322365 0.003754 -0.592499 0.528056 -0.079968 0.243980 -1.019327
被 -0.087910 -0.406070 0.541822 0.327384 0.336219 -0.569021 -0.543447 -0.822563 0.115514 0.111797 0.539928 -0.037934 -0.668418 0.070767 -0.492210 0.419081 0.704988 0.148341 0.117817 0.223774 -0.355852 -0.561191 -0.386311 -0.520073 -0.287869 -0.158020 0.819099 0.045148 1.007194 -0.519000 -1.015196 -0.220242 0.833632 -0.146833 -0.412264 0.301343 -0.133793 0.040864 -0.081376 -0.110107 -0.036634 0.016274 -0.240009 -0.074916 0.409503 -0.279408 0.126706 -0.048348 -0.068262 -0.505463
自 0.607405 -0.330363 -0.364299 0.011665 -0.304811 0.153417 -0.871915 -0.728874 -0.317428 0.314933 -0.230978 0.100591 -0.205549 0.789387 0.241299 0.438158 0.134343 0.306190 0.307533 -0.137010 0.218763 -0.549728 -0.302928 -0.598648 -0.407363 0.245211 0.513535 -0.488759 0.169743 0.226306 -0.686793 -0.414229 0.444078 0.482035 0.100672 0.095245 -0.560087 0.040042 0.161976 -0.404783 -0.267288 0.111541 -0.013218 0.093020 0.219891 -0.733666 0.132977 0.013320 0.262058 0.012487
作 0.813499 -0.498350 -0.162507 0.120976 -0.027781 0.357530 -1.123739 -0.182805 0.203484 -0.199185 0.239921 -0.044078 0.229094 0.413040 0.338575 0.108196 -0.179967 -0.418568 -0.618829 0.062161 0.365832 0.158765 -0.583187 -0.773966 0.102718 0.236278 0.313022 0.023027 0.015620 -0.378858 -0.789270 0.500389 0.985144 -0.240807 0.223538 0.072018 -0.034386 -0.018700 0.931485 -0.845453 -0.334559 -0.077481 -0.221112 0.092827 0.077408 -0.481403 0.976229 0.274926 -0.144306 -0.366848
最 -0.016216 -0.417400 -0.010171 -0.512563 0.043257 -0.243258 -1.207496 -0.498819 0.123090 0.681676 0.070092 0.890054 -0.424152 0.614379 0.377467 -0.408457 -0.038243 -0.233931 0.504110 0.555776 0.402219 -0.090735 -0.273670 -0.154718 0.661693 -0.701786 0.032061 -0.490542 -0.030281 -0.572016 -0.917777 -0.142142 -0.054816 0.002804 -0.219520 0.155525 -0.704747 0.162372 0.366151 0.059146 0.165236 -0.108752 0.481897 0.343484 0.142402 -0.313890 0.564103 -0.406319 0.294234 -0.527062
他 0.416004 -0.363753 0.021816 0.061616 0.369769 -0.345140 -0.833922 -0.947719 0.069073 -0.584302 0.445064 -0.267842 -0.646478 0.789758 0.151464 0.563355 0.404409 -0.088302 0.451045 0.581835 0.133196 -0.171802 -0.389573 -0.647864 -0.234861 0.304890 0.394000 -0.473714 0.638944 0.147268 -0.682466 -0.089842 0.510586 0.316880 0.169553 0.281479 -0.365292 -0.102145 0.162570 -0.827765 -0.416816 -0.097753 -0.253842 0.002055 0.013662 -0.588437 0.159030 -0.405322 0.373283 -0.119147
物 0.709816 -2.311646 -0.179588 0.491566 0.273323 -0.257929 -0.746075 -0.640701 0.754731 1.196587 0.429103 -0.239146 0.308570 0.135644 -0.467317 -0.039175 0.460814 -0.482714 0.152724 -0.007451 0.407634 0.690579 0.648233 0.593277 0.315262 0.329043 0.368126 -0.036915 0.171997 -0.107246 0.178950 0.106448 1.461880 0.432258 -0.070819 0.286173 -0.091122 -0.117591 0.829382 -1.073453 -0.223690 0.486999 0.014369 -0.065580 -0.609031 -1.530676 0.555064 0.134729 -0.208380 -0.871560
要 0.419648 -0.453477 -0.355592 0.043443 -0.103364 0.194497 -0.452657 -0.905420 0.327377 0.106237 -0.057186 -0.208382 -0.432894 -0.039788 0.647473 -0.200251 -0.188482 -0.068643 0.111326 -0.060378 0.255606 0.026157 0.433116 -0.958627 0.439339 0.075763 0.067864 -0.408830 0.111749 0.465461 -0.868651 -0.097070 0.777245 0.210768 0.100746 -0.067517 -0.114254 -0.073869 0.314773 -0.513730 -0.329570 -0.204748 0.456534 0.366631 0.042513 -0.956445 0.244127 -0.305240 -0.148777 -0.758665
立 0.171301 -0.057629 -0.297110 0.278003 -0.475865 0.516541 -0.477225 -0.181822 -0.217334 0.264774 -0.199126 0.812294 0.035388 0.608934 -0.178505 0.493068 -0.125480 0.200911 0.021309 0.365609 -0.249171 -1.112339 -0.448967 -0.278909 0.189088 0.272397 0.758272 -1.130827 -0.797836 0.166794 -1.070511 -0.737760 0.279867 0.055349 0.051076 -0.092075 -0.144768 -0.380800 0.313677 -0.499082 -0.132476 1.057558 0.781463 0.682143 0.508622 0.216328 0.231560 -0.093579 -0.134840 0.388272
7 -0.864252 -0.265715 0.060249 -0.414440 -0.151371 -0.435820 0.127249 -0.884773 0.225476 1.237025 -1.001422 0.055803 -0.968329 0.555665 -0.456102 0.087517 -0.615075 0.474196 0.402489 0.507146 0.012807 0.237414 -0.823054 0.255993 0.186472 -0.449971 1.050779 -1.524251 0.100402 -0.775892 -0.350688 -0.349585 0.504662 -0.642599 0.094440 0.458623 -0.433492 0.512559 0.670878 0.173568 -0.152104 0.428116 0.270030 1.152248 -0.099957 0.297701 1.009203 0.235664 0.177226 0.855434
海 -0.281700 -0.154327 0.473014 -0.608576 0.362088 0.353527 -0.343851 -0.579607 -0.110767 0.725666 -0.415673 0.529249 0.633223 -0.261975 0.250249 0.350423 -0.363372 0.412352 -0.050910 0.255540 -0.309632 0.765930 -0.434551 -0.586054 1.331731 -0.201991 0.278894 -0.771268 1.128395 1.356870 -0.874014 -0.068916 0.984150 0.382713 -1.274296 -0.489808 0.038567 -0.412809 -0.278665 0.845916 0.304604 0.511272 0.755411 -0.353046 -1.059105 -0.047928 1.256108 0.034267 0.755616 -0.449346
經 0.319524 -0.162688 0.360607 0.728196 -0.102133 0.137281 -1.250110 -0.373370 -0.114461 0.596889 -0.208465 0.230529 -0.475756 -0.197407 0.574273 -0.622663 0.287845 0.385339 -0.102001 0.537807 0.396406 0.229651 -0.367998 -0.740366 -0.150553 0.187328 -0.059546 -0.544646 -0.319338 -0.337428 -0.856631 -0.590177 0.139956 0.091808 0.061008 0.206918 -0.000015 0.108948 -0.146541 -0.539921 -0.111754 -0.176133 0.716904 0.424780 -0.207284 -0.603540 0.557861 -0.681651 -0.380433 -0.007219
爾 0.587977 -0.531642 -0.713667 0.597749 0.478403 0.031183 0.126059 -0.608758 0.714801 -0.918402 0.522699 0.413659 0.349574 0.839792 0.172366 0.374219 -0.326427 -0.382156 0.942389 0.606288 0.653719 -0.460788 -1.028093 -0.317947 0.315824 -0.629432 1.014262 -1.808172 0.695568 0.291882 -1.147557 -0.077025 -0.503579 0.255643 -0.092613 0.097709 0.630138 1.171107 -0.952439 0.141565 0.835969 1.123494 -0.544122 -0.248132 -0.875556 -0.212343 0.426716 0.153391 0.096183 0.529426
世 0.295380 -0.547200 -0.409188 -0.101573 0.000741 -0.304460 -0.716850 -0.284285 0.189517 0.675095 0.766848 0.193672 -0.165422 0.407558 0.207867 0.948975 0.252126 0.499743 1.010387 0.665155 -0.160637 -0.674345 -0.639637 -0.274852 0.026080 -0.051312 1.038270 -1.276407 -0.409329 -1.016349 -0.251035 -0.212038 -0.424715 0.037747 -0.656651 0.416757 -0.211289 0.725070 0.307417 0.430731 -0.921111 -0.420237 0.138519 0.090673 -0.114542 -0.127006 1.131385 -0.033284 0.448939 0.083074
所 0.570718 -0.206819 0.024534 0.422769 -0.065224 -0.117020 -0.820320 -0.764668 -0.030194 -0.080368 -0.162607 0.181307 -0.232453 0.420755 0.030076 -0.288043 -0.276717 0.165429 0.332331 0.341751 0.256108 -0.443281 -0.117413 -0.076861 -0.234384 0.414098 0.735307 -0.010238 -0.015996 -0.192683 -0.833245 -0.394750 0.832375 0.143404 -0.051229 0.073552 -0.254268 -0.607205 0.426478 -0.699192 -0.135138 -0.036915 0.084111 -0.132624 -0.144797 -0.388306 0.250632 -0.480054 0.126234 -0.193418
戰 0.156376 0.198437 -0.951635 -0.493843 0.570881 -0.762666 0.101673 -0.858370 -0.554595 1.489755 0.361548 0.276591 -0.068848 0.555059 -0.014729 0.446663 -0.064390 -1.501963 0.028828 0.049581 0.184346 0.022708 -1.120603 -1.598142 0.093721 0.126941 1.497716 -0.319091 0.661236 0.012436 -0.735122 -0.292354 0.340588 -0.467834 -0.322995 -0.007168 0.902621 0.101467 -0.991559 0.925720 -0.759544 -0.084645 0.861084 0.202290 0.759531 0.170043 0.784636 -0.203176 -0.366733 -0.162562
教 -0.711745 0.504953 -0.309888 1.185104 0.289161 0.234978 -1.718259 -0.507817 0.629221 -0.424476 -0.189012 0.710289 -0.915523 -0.341463 0.960593 0.789217 0.302795 0.241010 0.611212 0.473582 -0.682426 -0.633845 0.059866 -0.229696 -0.831695 1.050329 0.148880 -0.658356 -0.468829 0.153405 -0.448619 -0.957966 -0.092592 0.059300 0.599436 0.770963 -0.481077 0.392461 1.252569 -1.188031 -0.957921 0.335718 0.049119 0.696521 -0.329421 0.249065 0.521813 -0.667987 -0.416419 -1.012598
同 0.032402 -0.334747 -0.274165 0.066091 -0.117264 0.035754 -0.508807 -0.637556 0.849160 0.151359 0.362377 0.276322 -0.068163 0.639037 -0.265643 -0.200392 0.159437 0.164233 -0.052665 0.216701 0.340258 -0.331809 -0.017683 -0.156503 -0.331827 0.469316 0.087363 -0.452924 0.231240 0.297210 -0.342125 -0.196190 0.958720 0.217606 0.149297 0.075876 -0.194846 -0.193817 0.272257 -0.017309 -0.107461 0.353340 -0.150317 0.524901 0.970159 -0.582156 0.660722 -0.336600 0.043553 -0.180657
可 0.048235 -0.741141 -0.248718 0.579991 -0.159036 -0.143947 -0.795053 -0.569009 0.435741 -0.089320 -0.127293 -0.308670 -0.390754 0.678982 -0.008108 -0.143866 0.142327 0.011185 0.379767 0.275356 0.386791 0.118100 0.328584 -0.353529 0.619046 -0.001463 -0.217204 0.282795 0.870061 -0.439088 -0.301077 0.371957 1.156110 -0.116933 0.353154 0.229774 -0.581518 -0.353806 0.287002 -0.142815 -0.300945 -0.477476 0.172255 0.088412 0.125995 -1.022672 -0.027618 -0.484471 0.191501 -0.725072
等 0.112314 -0.415465 -0.655807 0.054293 -0.012314 0.699750 -0.842958 -0.135699 0.087763 0.141257 0.203591 0.126400 0.693428 -0.260016 0.296242 -0.242839 -0.637055 -0.242101 0.200346 -0.362131 -0.596863 0.205829 -0.181624 -0.096267 0.304198 0.178420 0.210492 -0.240625 -0.103591 0.553989 -0.422799 -0.077329 0.707757 0.168504 -0.351392 0.602990 -0.146469 0.397182 0.721370 0.122441 0.131383 0.186649 0.021810 0.169625 0.322439 -0.365890 0.652429 0.055845 -0.363685 -0.204776
理 0.669603 0.057438 -0.321239 0.562731 0.301268 0.868191 -1.401734 -0.685206 0.403474 -0.127557 0.524647 -0.080175 -0.014426 0.034169 -0.212963 0.300994 -0.373994 -0.055770 -0.036788 0.588887 0.349654 -0.211208 0.259370 0.124324 -0.057717 0.317052 0.789058 0.119658 -0.525140 -0.285105 -0.580404 -0.460864 0.492534 0.150092 0.230269 0.603128 0.197443 -0.793622 0.319946 -0.707867 0.328560 0.634207 0.466616 1.089215 -0.386096 -0.715520 0.780294 -0.258266 0.122220 -0.139461
也 0.287403 -0.471425 -0.033697 0.222976 0.114565 -0.089891 -0.720768 -0.633213 0.315197 0.121313 0.362444 0.310062 -0.187616 0.554691 0.373189 -0.152680 0.458387 -0.060247 0.226056 0.300444 0.154652 -0.142817 -0.102664 -0.685797 0.246997 0.084429 0.142537 -0.333867 0.503522 0.027171 -0.815440 0.105877 0.526430 0.177609 0.352228 0.014007 -0.389801 -0.242410 0.448648 -0.217608 -0.078295 -0.125342 -0.098655 -0.043067 0.199031 -0.561010 0.548955 -0.367114 -0.093876 -0.961449
開 1.037566 -0.347007 0.601887 0.036291 -0.864363 0.278332 0.173632 -0.711950 -0.399213 0.682760 -0.128916 0.174329 -0.211431 -0.082845 0.323608 0.481080 0.516764 0.443573 -0.018179 0.515865 0.307039 -0.291624 -0.150784 -1.009782 0.684181 0.472755 0.310840 -0.795369 -0.172042 -0.470076 -0.763640 -0.406318 0.617805 -0.604656 0.095007 0.360311 -0.370560 0.592254 0.101302 0.143512 -0.447635 0.043869 0.586010 0.457313 0.132639 -0.171377 0.415595 0.350117 -0.297040 0.193378
現 0.585172 -0.518004 0.259888 0.224017 -0.130238 0.092397 -0.618767 -0.553328 0.142177 0.811474 -0.228411 0.472898 0.450463 0.398257 -0.091265 -0.010838 0.504803 0.059586 0.132189 0.459311 0.599547 -0.208971 -0.038432 -0.419108 0.271665 -0.335407 0.172929 -0.294508 0.162455 -0.607316 -0.323613 0.063288 0.451224 0.378852 0.887418 0.079374 -0.310399 0.040882 0.581244 -0.007436 0.014641 -0.095572 0.119231 0.387536 -0.194467 -0.837258 0.823136 -0.178245 0.422764 -0.431774
北 -0.195231 0.104467 -0.226962 -0.887132 -0.037007 0.292839 -0.459116 -0.513715 -0.107454 0.835898 -0.673526 1.235582 -0.531651 -0.104303 0.277858 -0.146565 -0.298579 0.292275 -0.128089 0.285425 -0.034453 -0.364089 -0.507352 -0.308269 0.502838 0.960006 0.103731 -0.684669 0.747498 0.886156 -0.960333 -1.527438 0.368000 0.115953 -0.790552 -0.277969 -0.104180 0.224261 -0.199598 1.224831 0.558014 0.234629 0.928159 0.152393 -0.124872 0.124522 0.709050 0.487044 -1.040935 -0.076517
位 0.119833 -0.014152 0.278543 0.000594 -0.119026 -0.395777 -0.910756 -1.005315 0.708731 -0.109592 0.206623 0.548807 -0.176811 0.119155 0.098704 0.305446 0.236579 0.564279 1.101713 0.354031 0.361946 -0.332478 -0.120600 0.468630 0.069041 -0.462240 0.055147 -1.061575 -0.124248 0.237339 -0.807186 -0.359658 0.223824 -0.609233 -0.455642 0.179978 -0.519591 -0.389701 0.605676 0.361439 0.517345 0.506459 0.931560 0.264264 0.151736 -0.015177 0.117348 0.000936 0.428594 -0.327710
度 -0.723584 -0.691252 -0.327222 -0.031885 -0.264432 0.100279 -0.971428 -0.309314 0.070823 0.444817 -0.407989 0.351228 -1.160511 0.792329 0.134000 -0.532362 -0.310036 0.238803 -0.481252 0.843692 -0.162807 -0.306881 0.272433 -0.030140 -0.004324 -0.009004 0.127845 -0.387246 0.465795 -0.108559 -0.492590 0.002844 -0.088160 -0.094507 0.728672 0.238847 -0.990653 -0.304022 0.600573 0.326922 0.139578 -0.283467 1.553273 0.272934 -0.331758 -0.426925 0.305340 -0.207177 0.536245 -0.698409
東 0.304478 -0.011910 0.304174 -0.635587 0.341375 0.219120 -0.844746 -0.591116 -0.423474 0.373788 -0.866998 1.188772 -0.874811 -0.291275 0.123165 -0.033550 -0.527421 0.256739 -0.005061 0.120124 0.266977 -0.604312 -0.738207 -0.360943 0.703543 0.502416 -0.166559 -0.371278 0.515178 1.465253 -0.917380 -1.316507 0.546753 0.060782 -0.774631 -0.326732 0.022044 0.156754 -0.164276 1.165165 0.734654 -0.189325 0.374989 0.028349 -0.087417 -0.193061 0.671533 0.247184 -0.426496 0.204885
因 0.384647 -0.342273 -0.033155 0.103247 0.190886 0.021733 -0.960605 -0.514550 0.445377 0.491569 0.278181 0.182612 -0.454411 0.360241 0.178779 -0.336488 0.288813 -0.020362 -0.010180 0.631406 0.140513 -0.106726 0.155230 -0.448709 -0.128691 -0.309145 0.506482 -0.317286 0.816395 -0.023138 -0.530578 -0.232246 0.690257 -0.062237 0.229197 0.318782 -0.082062 -0.151518 -0.275436 0.053653 -0.148507 0.244085 -0.266719 0.056816 0.031321 -0.305385 0.173299 -0.444287 0.343896 -0.782354
體 0.414111 -0.488080 -0.872632 0.385145 -0.130575 0.223248 -0.978243 -0.591939 1.351477 0.556063 0.515968 0.606584 0.075285 1.184200 -0.306922 -0.144425 0.464835 0.335325 -0.443632 -0.045259 0.264164 -0.071106 0.136183 -0.080438 -0.416371 0.620175 0.057329 0.152656 -0.202770 -0.782221 0.222969 -0.548996 0.968166 -0.255034 0.851359 0.095385 0.180838 0.107515 0.869449 -0.763901 0.208212 -0.001395 0.354831 0.035655 -0.488394 -0.728271 -0.216593 -0.126455 0.570854 -0.485375
高 -0.574273 -0.112016 0.149594 -0.487525 -0.346347 0.454009 -0.948910 -0.297329 0.089670 -0.079571 0.253166 0.375820 -0.517821 -0.055541 -0.008780 -0.791034 -1.302194 -0.159985 0.412534 0.797965 -0.150311 0.542401 0.045236 0.417482 0.505549 -0.248169 0.196591 -0.868603 -0.483118 0.212912 -0.648568 -0.314608 0.274580 -0.731837 0.126334 0.297237 -1.011298 0.245164 0.974628 0.673331 0.749683 -0.231623 0.729017 0.318845 -0.308750 -0.480010 -0.122585 -0.918834 0.074229 -0.676808
第 0.555668 0.394183 -0.314324 0.125710 0.178045 -0.336180 -0.074444 -0.729621 0.330176 0.092817 -0.294813 0.394738 0.065011 0.277500 -0.519956 0.078718 -0.166556 0.373193 0.486267 0.018568 0.116287 -0.028786 -1.129136 -0.309161 -0.541325 -0.185557 1.093988 -0.811981 -0.679742 -0.761177 -0.646946 -0.098204 0.172264 -0.595045 -1.021947 -0.346051 -0.335962 0.535527 0.263600 0.600367 -0.476895 -0.545813 1.369985 1.019547 0.380715 -0.273424 0.937871 0.141642 0.337228 0.189728
本 -0.175243 -0.313849 0.139009 0.410458 -0.045066 -0.087941 -0.927575 -0.430643 0.074193 0.398117 -0.652238 0.213903 0.051383 0.006129 0.547398 -0.077581 -0.581693 0.049400 0.199871 0.098787 0.429230 -0.301390 -0.108631 -0.665289 -0.284931 0.197282 0.824417 -0.745814 -0.158542 -0.199149 -0.369137 -0.016061 0.708131 0.077029 -0.155745 -0.560234 -0.112119 0.126111 0.475279 -0.608010 -0.010256 0.024203 0.677726 0.002673 0.323270 -0.685521 0.708741 -0.131866 -0.089998 -0.315874
期 0.523902 -0.041304 -0.297011 0.162885 -0.272688 -0.032423 -0.548748 -0.271773 0.034966 1.366432 -0.068166 0.219512 -0.241741 -0.470145 0.144353 0.198784 0.538863 -0.019099 0.153495 1.150688 0.194420 -0.622583 -0.272430 -0.306729 0.441055 0.461402 -0.271812 -0.625744 0.363661 -1.057831 -0.593350 -0.332895 -0.134951 -0.327718 0.163683 -0.022745 0.175027 0.239666 0.548878 0.736736 -1.110965 0.101350 0.309071 0.753346 0.277667 0.038772 0.920007 -0.623038 0.324936 -0.169472
過 0.449558 -0.745076 -0.053703 0.307269 -0.102613 -0.076797 -0.447867 -0.546594 0.179881 0.120756 -0.051341 -0.206863 -0.628773 0.870979 0.025424 -0.218917 -0.258730 0.377519 0.139937 0.795066 0.176450 0.286803 -0.075261 -0.406926 -0.088079 -0.000383 0.138292 -0.250558 0.512098 -0.231248 -0.444668 0.025337 0.870161 -0.669690 0.047029 -0.057571 -0.224749 0.095097 0.009837 -0.166852 -0.562686 -0.455398 0.801545 0.862585 0.026038 -0.497864 -0.004251 -0.183522 -0.072125 -0.169059
化 0.553080 -1.189687 -0.539884 0.407821 0.072032 0.144967 -1.148351 -0.088500 0.376548 1.485019 0.642742 0.766213 -0.160741 0.142273 0.246473 0.123892 0.184591 -0.022497 -0.537745 -0.188379 -0.117918 -0.161913 0.695354 -0.448512 -0.145937 -0.080604 0.051315 0.078129 -1.203190 -0.520303 -0.456600 -0.133187 1.258947 0.131966 1.085304 0.268020 -0.301874 -0.179196 0.697207 0.532881 0.366680 -0.389246 -0.379000 0.074122 -0.128008 -0.817254 0.362354 0.121874 -0.478195 -0.692606
名 0.006813 0.265768 0.211424 0.205216 0.385184 -0.360647 -0.938295 -0.460962 0.497894 -0.276645 0.358981 1.180581 0.409280 0.170242 0.140520 -0.131415 0.385301 0.145965 0.776033 -0.484897 -0.232388 -0.255875 -0.836625 0.401182 -0.208554 -0.549513 0.143997 -1.165737 0.527888 0.063767 -0.893721 0.436417 0.786901 0.044090 -0.441105 0.023447 -0.780438 0.172419 0.252842 -0.221435 -0.242392 -0.273500 -0.271471 0.439731 0.878287 -0.182055 0.824396 -0.197240 0.077312 0.126531
工 1.235575 -0.233512 -0.158511 0.927050 -0.426466 0.787536 -0.314871 -0.211327 0.460147 0.795390 0.077732 -0.180696 -0.170572 -0.088224 0.185269 -0.118756 -0.287818 -0.104524 -0.519132 -0.555221 -0.092777 0.816898 -0.478102 -0.884704 1.121312 0.166993 0.981413 -0.135330 -0.773611 0.177079 -0.996874 -0.298223 0.556776 -0.674415 -0.226568 -0.124317 -0.243216 -0.030022 0.987095 -1.040998 0.086046 0.018817 -0.155664 1.491243 0.127975 0.158203 0.467391 -0.174001 -0.166133 -0.920348
子 0.493240 -1.383687 -0.172570 -0.464074 0.159033 0.190943 -0.298718 -0.776143 0.168067 -0.542784 1.365411 -0.370474 0.072706 0.816320 -0.082716 -0.026437 0.027632 0.058536 0.956305 0.661420 0.269187 -0.078983 0.799437 0.249961 -1.012609 0.646729 0.492969 -0.417634 -0.088979 -0.479048 -0.247680 0.014362 1.356306 -0.140754 -0.154881 1.031833 -0.319048 -0.648145 0.848126 0.280887 0.574044 -0.222204 0.142416 0.133608 0.053654 -0.657444 -0.562671 1.102866 0.713132 0.499371
種 0.017425 -1.380572 -0.096253 0.047576 -0.179863 0.166948 -0.743008 -0.665564 0.616079 0.889419 -0.120200 -0.323769 0.731876 0.411481 -0.572545 -0.333990 -0.280320 -0.300219 -0.198745 0.069035 0.536768 -0.399608 -0.038046 0.001369 -0.031886 0.430628 0.658964 0.156680 0.176360 0.215097 0.385710 -0.285654 0.863780 0.289144 0.301312 0.221054 -0.542484 -0.076836 0.887833 -0.361876 -0.568971 -0.338146 -0.137179 0.306405 0.082315 -0.914687 0.144755 -0.093046 0.165741 -1.612742
定 0.218853 0.415400 -0.450876 0.579646 0.109550 0.123875 -0.450647 -0.357844 0.110771 0.121440 0.013019 -0.088566 -0.134884 0.346742 -0.554721 -0.406111 0.090090 1.026904 -0.492813 0.324206 0.108503 -0.478160 1.021941 -0.328031 -0.332654 0.117972 0.324236 -0.788505 0.277961 -0.243872 -1.000375 -0.121998 0.650792 0.214240 0.047130 0.296010 -0.187471 -0.557247 0.140253 -0.006228 -0.450572 0.782027 0.855593 0.504072 0.691520 -1.337579 0.453611 0.135042 0.160057 0.049234
內 0.790706 -0.128804 -0.441675 0.477372 0.312139 0.045106 -0.318179 -1.251688 0.300631 0.450488 0.011398 0.632943 -0.316706 0.231462 -0.082590 -0.122220 -0.150458 0.220294 0.596972 0.189751 0.273842 0.218785 -0.073428 0.129736 0.393596 -0.278956 0.379268 0.147559 -0.248734 0.205123 -0.808876 -0.230383 0.297909 -0.190738 0.036188 -0.338941 0.400113 0.258113 0.520522 0.499920 0.554629 0.583309 0.683790 0.184418 -0.166899 -0.139323 0.782282 -0.664305 0.045180 -0.415600
並 0.165380 -0.037430 0.002671 0.293212 -0.355533 0.095839 -0.326666 -0.671713 0.057079 0.037460 0.224669 0.054065 -0.525849 0.348942 -0.048265 0.229255 0.200773 0.400763 -0.290262 0.206635 0.023067 -0.263727 -0.019197 -0.862912 -0.071888 0.079079 0.730662 -0.370328 0.302643 -0.123214 -0.919498 -0.049169 0.702151 -0.080443 0.053962 -0.031440 -0.327672 -0.143716 -0.009600 -0.413721 0.020080 0.199725 0.431785 0.022910 0.268798 -0.497142 0.245380 -0.219722 -0.217307 -0.113676
義 -0.074534 -0.188718 -0.064795 0.425751 0.856604 1.259528 -1.040914 -0.303814 -0.683563 0.249614 0.383124 0.429819 -0.405958 0.424927 0.463975 0.796481 -0.007291 0.271250 -0.661609 -0.299563 0.822519 -0.785718 -0.336358 -0.602029 -0.955194 0.302907 0.449017 -0.477283 -0.145354 0.128222 -0.883074 -0.360538 0.315414 0.892907 0.968222 0.171610 -0.503442 0.206562 0.414407 -0.206559 -0.516135 0.066721 -0.085500 0.555121 0.360512 -0.452787 1.027966 -0.483583 0.244116 -0.886068
新 0.345423 0.155942 0.000375 0.350354 -0.937504 0.214176 -0.412833 0.031618 -0.168253 0.333295 -0.637293 1.005097 0.343387 -0.356928 0.110738 0.410031 0.142960 0.555276 -0.500441 0.058344 0.109300 -0.430200 -0.237760 -0.622431 0.338256 0.016568 0.725449 -1.046231 -0.302145 -0.135474 -0.805816 -0.198047 0.733831 0.198003 0.104661 -0.212510 -0.640569 0.407333 0.916939 -0.204844 0.119001 -0.015934 -0.022661 0.590781 0.008981 -0.265343 0.093545 0.130953 -0.399938 -0.008736
建 0.498710 0.173451 0.529225 0.601429 -0.530327 0.409930 -0.588272 -0.305169 -0.609000 0.584757 0.325258 1.063163 -0.190102 0.396786 -0.113361 0.290101 -0.257331 0.228255 0.244992 -0.024013 -0.361290 -0.502671 -0.477997 -0.265092 0.541381 0.366353 0.920416 -1.113692 -0.735240 0.248886 -1.577299 -0.593049 -0.001807 -0.472372 -0.139657 -0.715796 0.035775 -0.634620 0.895782 0.005666 0.097587 0.368413 0.082239 0.344224 0.382630 -0.276053 -0.000492 0.065726 -0.593009 0.095358
稱 0.247050 -0.165958 0.301990 0.260310 0.502192 -0.029997 -1.192219 0.190262 0.061012 -0.000796 0.420166 1.142322 0.232764 -0.096733 0.093189 -0.058738 0.175448 0.174216 0.515015 -0.057533 0.107096 -0.923242 -0.593031 0.266985 -0.617459 0.119887 0.055137 0.048635 0.732119 0.128651 -0.736215 -0.289377 0.831141 -0.294280 -0.198638 0.087231 -0.137404 0.005333 0.153549 -0.031360 0.279255 0.109291 -0.171456 0.420365 0.930854 -0.596185 0.321784 0.173072 0.772496 -0.336883
長 0.568490 0.452582 -0.876441 -0.310036 0.408851 0.212383 -0.568504 -0.524313 0.313555 0.250200 0.041499 -0.281087 -0.297240 0.184102 0.221335 -0.377761 -0.102841 -0.193645 0.130746 0.276969 0.109330 0.493145 -0.457993 0.492980 0.503949 0.421055 -1.128415 -0.811806 0.549156 -0.002869 -1.018540 -0.303967 0.367379 -0.584430 -0.102008 0.054160 -0.201515 -0.072520 0.798495 0.419993 0.835114 -0.460322 0.798709 0.926689 0.292560 0.411044 0.773442 -0.489894 0.385759 0.822946
都 0.612404 -0.414588 -0.077815 0.148643 0.092398 -0.031009 -0.357590 -0.866372 0.083999 -0.041537 0.076787 0.429213 -0.199296 0.178580 -0.113486 -0.271326 0.499829 0.229875 1.051688 0.224809 -0.020308 -0.605170 0.045341 -0.240260 0.355706 0.250448 -0.269169 -0.085060 0.348591 0.628317 -1.231428 -0.433293 0.416380 -0.173595 -0.090000 -0.037955 -0.122111 -0.451495 0.741493 0.258929 0.316035 0.137373 -0.071738 0.101609 0.346224 -0.673163 0.476395 -0.336633 -0.183048 -0.376868
麼 0.479910 -0.308748 0.143242 -0.109500 -0.246131 0.528866 -0.682981 -0.527104 0.480672 0.393587 0.192307 0.443373 -0.051313 0.191190 -0.203662 -0.118639 -0.055379 -0.421586 -0.225571 0.674480 0.278418 -1.061187 0.247286 -0.406327 0.562257 -0.009381 0.126343 0.054971 0.555988 0.033621 -0.837795 0.106492 1.073242 -0.314200 0.213341 -0.631909 -0.297984 0.124097 0.329769 -0.383277 -0.448959 0.077848 -0.114370 0.430073 0.247405 -1.096461 -0.414404 -0.670152 0.397947 -0.630518
此 0.308080 0.061505 0.128591 0.350197 0.041510 0.020365 -0.631759 -0.582577 0.311592 0.313269 0.189315 0.231718 -0.375395 0.454884 0.081382 -0.068387 0.235079 0.122411 0.220202 0.347355 0.244203 -0.287201 -0.022667 -0.694756 0.065551 -0.095228 0.301301 -0.411754 0.806248 0.086641 -0.637349 -0.060653 0.661195 0.004013 0.182977 0.318886 -0.333453 -0.137311 -0.027188 -0.046900 -0.225855 -0.186502 0.118320 -0.134766 0.379911 -0.382847 0.340458 -0.431233 0.139719 -0.421464
下 0.237817 0.446780 -0.218428 -0.319992 -0.074370 -0.211616 0.096468 -0.903271 0.156499 0.371898 0.163629 -0.275306 -0.407762 0.588345 -0.226860 -0.081239 -0.486817 0.052853 -0.075750 0.120622 0.003403 -0.096477 0.072975 -0.215299 0.093092 0.280151 0.546380 -0.716840 0.653529 0.138069 -0.880737 -0.263193 0.662215 -0.256180 0.197811 -0.462875 -0.432463 0.207092 0.842746 0.463370 -0.093997 0.156008 0.615394 -0.476213 0.103379 -0.041326 -0.151273 -0.466653 0.433980 -0.194056
克 0.620983 -0.176791 -0.602524 0.459638 1.058396 0.351370 0.014757 -0.378638 0.317655 -0.561996 0.117568 0.026587 -0.182660 0.586346 0.350695 0.785759 -0.555215 -0.156960 0.561509 0.550197 0.540656 -0.111723 -1.440447 -0.457394 -0.335894 -1.157983 0.525296 -0.811008 0.399378 -0.088916 -0.993452 -0.260422 -0.212532 0.038576 0.285639 0.406397 0.377261 0.618493 0.049337 0.432300 -0.353947 0.841918 -0.556264 0.493907 -0.851825 -0.634011 0.343379 0.670242 0.141236 0.178106
什 0.426266 -0.671246 -0.180168 0.420585 -0.152338 0.433758 -0.457568 -0.510301 0.588868 0.114765 0.124689 0.305675 -0.079568 0.263935 -0.036508 0.117106 -0.120113 -0.395449 -0.304477 0.636995 0.456147 -0.876493 0.133584 -0.222054 0.545419 -0.075022 0.183727 -0.349382 0.799627 0.097162 -0.810442 -0.074092 0.702422 -0.219669 0.122810 -0.510172 -0.021523 0.524968 0.322891 -0.107142 -0.261481 0.253110 -0.185658 0.440303 0.002946 -1.144192 -0.443846 -0.540199 0.413904 -0.362088
業 1.268508 -0.656121 -0.254461 0.569551 -1.164657 0.528459 -0.416797 -0.493412 0.647866 1.166365 -0.091069 0.158501 -0.289861 -1.087181 0.342131 -0.797822 0.342801 0.059660 -0.231419 -0.668895 -0.082926 0.474498 -0.906189 -1.060438 0.906335 -0.251430 0.274860 -0.827107 -1.680345 0.069367 -0.857833 0.075057 0.221428 -0.356848 -0.219207 0.758669 -0.778566 -0.173997 1.055723 -1.147833 0.678508 -0.440623 -0.279920 0.539125 -0.333631 -0.194280 0.522763 -0.482004 0.178588 -0.434243
全 0.214605 0.319593 -0.425901 -0.540196 -0.285160 -0.029656 -0.555902 -0.721520 0.599050 0.680622 -0.473022 -0.028788 -0.338888 0.386332 -0.782693 -0.382775 0.076463 0.763844 0.217519 -0.153011 -0.274430 -0.107612 -0.524489 -0.402857 -0.012619 -0.483672 0.750510 -0.744149 -0.254036 -0.347573 -0.420549 -0.728689 0.304801 -0.075309 -0.459588 -0.263610 -0.149934 0.284844 0.544309 -0.300944 0.171774 -0.398068 0.783927 0.480211 0.150994 -0.882550 0.604055 -0.767636 -0.003740 -0.178609
統 0.162205 0.052165 -0.446078 0.702409 -0.586736 -0.020944 -0.920470 -0.562635 0.688962 0.215480 -0.095102 -0.058156 -0.046233 0.243424 0.003286 0.780175 -0.608380 0.429050 -0.018134 0.362439 0.328748 -0.635967 -0.913900 -0.401360 -0.855897 0.287323 0.256834 -0.270712 -0.188770 -0.158801 -0.711651 -0.459867 0.019393 -0.598474 0.254692 -0.251074 0.231685 0.125267 0.575099 -0.079899 0.405032 0.636388 0.393105 0.348374 0.630151 -0.849582 -0.070128 -0.515727 0.194662 -0.466854
德 -0.124945 0.260896 -0.283014 0.193908 1.215043 0.562059 -0.191279 0.091136 0.289768 -0.538723 0.732935 -0.061991 -0.715953 0.418898 -0.442166 0.987132 -0.419381 -0.136087 0.281500 0.513646 -0.093470 -0.323009 -0.640407 -0.749760 0.153680 -0.636088 0.517516 -1.458529 0.239891 0.616956 -0.425147 0.162172 -0.115026 0.412935 -0.035263 0.185986 -0.003954 0.340968 0.367756 0.948871 -0.140175 0.348442 -0.456657 0.574830 0.083250 -0.495444 1.092151 0.199428 -0.067046 0.555615
州 0.851314 0.268002 -0.170096 0.261575 -0.739789 -0.032831 -0.588520 0.230552 0.416084 0.061710 -0.493351 0.504871 -0.748277 -0.230661 -0.188967 -1.032368 -0.812957 0.610612 0.160847 -0.455335 -0.393572 -1.095799 -1.451222 -0.323079 0.453515 -0.641587 -0.269873 -0.958497 0.295964 1.332214 -0.669416 -1.285516 -0.049595 0.329377 -0.403559 0.528937 -0.136239 -0.253518 0.453786 1.424876 -0.354101 0.047766 -0.073710 -0.146382 1.280258 0.397487 -0.194041 0.184176 -0.232262 -0.255016
能 0.500612 -0.474445 -0.506928 0.503181 -0.411698 0.181343 -0.767391 -0.409106 0.501005 0.202375 0.343226 -0.906199 -0.697937 0.847909 -0.005758 -0.042158 -0.019544 0.071427 0.468695 0.541683 0.379625 0.332767 0.696831 -0.908274 0.098158 0.137871 0.263442 0.368498 0.691073 -0.129332 -0.302045 0.294818 0.970152 -0.244618 0.285047 0.342674 -0.677730 -0.930001 0.171676 -0.221732 0.157726 -0.392595 0.060131 -0.025724 0.050613 -1.156383 -0.054843 -0.424055 0.458096 -0.811277
亞 -0.213815 -1.311300 -0.855920 0.058269 1.404077 0.054593 -0.691076 -0.006421 0.294142 0.021640 -0.717465 0.344865 -0.477388 0.163683 -0.826832 0.562053 -0.572367 0.203848 0.710723 1.226490 -0.127972 -0.932931 -1.481351 -0.771401 0.505158 -0.504695 -0.451586 -0.881140 -0.495963 0.407071 -0.794980 -0.290796 -0.066706 0.151928 -0.350163 -0.385198 0.149903 0.494488 -0.405308 0.237630 0.126954 0.364233 0.517432 0.260355 -0.777341 -0.219647 0.374962 0.373534 -0.193150 -0.477194
利 0.392515 -1.052213 -0.836885 1.024057 0.768245 -0.027919 -0.557061 -0.459483 0.128385 -0.065326 -0.393467 -0.251708 -0.915493 0.440860 -0.439114 0.379950 -1.063460 -0.224720 0.358795 0.867934 0.008709 -0.236555 -1.043691 -0.983940 -0.095590 -0.994427 0.316979 -0.587156 -0.502861 0.967152 -0.929456 0.645306 0.010301 0.202907 0.206313 -0.038811 0.111415 -0.031651 -0.131592 0.113623 -0.505370 0.085089 0.456148 -0.279834 -0.471841 -0.012085 0.504670 0.222385 -0.268454 -0.341696
三 0.458312 0.084891 -0.767236 0.692665 0.233133 0.353568 -0.574859 -0.676547 -0.018546 0.399985 -0.004934 0.296340 0.477874 0.037115 -0.104601 -0.480112 -0.240194 0.214513 0.819237 -0.269240 0.203576 -0.199730 -0.620426 0.016396 -0.243499 0.552724 0.499543 -0.562679 -0.181985 -0.350171 -0.328898 -0.406721 0.370218 -0.636384 -1.017174 -0.000718 -0.031239 0.095990 0.721360 1.309082 -0.293923 -0.766205 0.990238 0.246933 0.504369 0.172856 0.423650 0.220706 0.025845 0.377155
前 -0.021189 -0.184907 -0.337037 0.097105 -0.290946 -0.692501 -0.325885 -0.456078 0.063966 0.754218 -0.334034 0.238189 -0.028383 0.026704 -0.001944 0.404862 0.289072 0.152933 1.112189 0.248043 0.339998 -0.246858 -0.412929 -0.553910 0.649169 -0.013618 0.038807 -0.635556 0.344077 -0.398710 -0.709563 -0.128511 0.397570 -0.209556 -0.013780 0.278026 0.075600 0.173086 0.114284 0.378534 -0.439758 -0.355623 0.506292 0.299850 0.396141 -0.199104 0.579398 -0.072107 0.251990 0.145065
特 0.815814 -0.302001 -0.672668 0.612934 0.725147 0.003668 -0.425465 -1.025622 1.003824 -0.850293 0.083568 -0.028161 0.191145 0.389869 -0.516812 0.757749 -0.490476 -0.673525 -0.022791 0.670290 0.058764 -0.677632 -0.065727 0.074883 0.643444 -1.002883 0.462645 -1.078784 -0.158660 0.924432 -0.753173 0.320517 -0.235670 0.363641 0.885560 0.493951 0.096152 0.529668 0.328797 0.667883 -0.207018 0.450148 -0.010623 0.141850 -0.360114 -0.621694 0.619771 0.036134 0.305418 -0.442651
外 0.085240 -0.473487 -0.248657 0.324579 -0.482590 -0.041971 -0.453924 -1.226322 0.436113 0.145941 -0.344395 0.537739 -0.168521 0.147355 -0.087213 0.246917 0.548831 0.273636 0.052449 0.052902 -0.341405 0.533954 -0.008349 -0.384075 0.343421 0.527979 -0.026628 -0.455343 -0.132098 0.531911 -0.517449 0.335276 0.894598 0.174174 -0.423756 0.109386 0.456440 -0.169800 0.143386 0.048841 0.345552 -0.000091 0.438059 -0.405237 -0.065224 -0.253206 0.711272 -0.497523 0.342923 -0.687801
進 0.702487 -0.261744 -0.790064 0.318007 -0.276714 -0.092049 0.199193 -0.502763 0.087020 0.854359 0.231394 -0.030721 -0.500076 -0.032273 0.158492 0.094817 0.182503 0.195673 -0.457906 -0.000948 0.165742 0.115773 -0.369579 -1.281699 0.036915 0.526131 0.349469 -0.094855 0.367690 0.039934 -0.809538 0.099616 0.574093 -0.320550 0.270427 0.154705 -0.237023 0.084035 -0.024084 0.090776 -0.218514 -0.239576 0.868612 0.416160 -0.201272 -0.632802 0.368766 0.049960 -0.645115 0.132300
使 0.229567 -0.399769 -0.447851 0.377252 -0.629581 -0.084377 -0.617766 -0.455055 0.325664 0.285048 0.153367 0.096101 -0.404787 0.104778 0.235078 0.262776 0.408697 0.034726 -0.046362 0.292605 -0.210039 -0.318788 -0.224927 -0.827299 -0.036677 0.192150 0.187821 0.019020 0.756220 0.277107 -0.489481 0.253039 0.504690 -0.698692 0.415303 0.368553 -0.069452 -0.167289 0.194856 0.148151 0.041891 0.260997 0.068564 0.000693 0.414136 -0.569370 0.208016 -0.399957 0.079221 -0.632393
加 -0.420339 -1.015741 -0.570843 0.499488 0.297023 0.132351 -0.296962 -0.411637 0.217300 0.028364 -0.078840 -0.169856 -1.037564 0.123854 0.015110 -0.194457 -0.577672 0.284443 -0.546141 0.740145 -0.249120 0.108199 -0.505556 -1.236338 0.435242 -0.331159 -0.339839 -1.271837 -0.153969 0.242091 -0.697623 0.634122 0.013052 -0.384408 -0.172694 -0.541247 -0.262624 0.354895 0.226327 -0.068317 0.007894 0.111086 0.532662 0.868377 -0.319186 0.025942 -0.341019 0.001518 0.014541 -0.542236
合 0.143057 -0.454936 -0.915105 0.178905 -0.015031 0.382231 -0.594292 -0.797652 0.970943 0.266327 0.603508 0.787135 0.211063 0.640055 0.036292 -0.493206 0.127044 -0.022542 -0.268975 -0.677845 -0.156576 -0.131957 -0.425418 -0.390579 -0.676640 -0.066579 0.540330 -0.353581 -0.557983 -0.352191 -0.241310 0.132361 1.287687 -0.529839 0.506102 -0.242664 0.227143 -0.740393 -0.209955 -0.273014 0.230783 0.805404 0.501324 0.589383 0.316904 -0.161533 0.241438 0.355422 -0.715322 0.181865
》 -0.182002 0.155183 0.240382 0.052906 0.361732 -0.834590 -1.247570 0.501294 -0.304622 -0.585192 -0.348121 0.832349 0.916970 0.139896 0.684521 -0.751593 -0.756450 0.279008 -0.382485 0.204698 0.108568 -0.309570 -0.059282 -0.162286 -1.137502 0.110952 0.658315 -0.190322 0.102844 -0.579227 -0.473844 0.466581 0.990595 0.516494 -0.725474 0.082767 0.210555 1.102173 0.441438 -1.001419 -1.127211 -0.168801 0.585485 -0.458350 0.389552 -0.955158 1.738435 0.181689 -0.014614 1.212087
《 -0.165001 0.036496 0.173574 -0.050857 0.266419 -0.651428 -1.282789 0.818296 -0.450171 -0.413003 -0.674335 0.900933 0.836198 0.063317 0.952060 -0.706454 -0.886698 0.036163 -0.587381 0.522244 -0.045208 -0.100972 -0.130478 -0.373046 -1.105980 0.065791 0.545571 -0.231916 0.039321 -0.337427 -0.405181 0.376137 0.809782 0.549505 -0.893824 -0.018308 0.214446 1.300719 0.452673 -0.949694 -0.975505 0.001352 0.357012 -0.405184 0.071328 -0.826979 1.617737 0.304173 0.105058 1.546273
間 0.608368 0.051429 -0.408429 -0.073339 -0.118325 -0.232607 -0.344538 -0.829994 0.195943 0.769438 -0.178050 0.808124 -0.570451 0.453294 0.327492 -0.037636 0.148733 0.102197 0.115662 0.684027 0.570621 0.210476 -0.089610 -0.259873 0.381048 0.511960 -0.058651 -0.551776 0.590160 -0.154479 -0.142017 -0.156415 0.472565 -0.640371 0.404613 0.127981 0.438765 0.025838 0.562369 0.375296 -0.521158 -0.256029 0.495110 0.228783 0.186748 0.137859 0.575270 0.087801 0.279136 -0.363802
力 0.187913 -0.185497 -1.143626 0.047773 -0.494076 0.651983 -0.090410 -0.962455 -0.559958 0.829553 0.452375 -0.278128 -0.247090 0.262868 0.275822 0.246989 -0.409448 -0.164317 -0.682777 0.503276 0.725777 0.226115 0.037216 -0.871438 -0.583030 0.364331 1.536410 -0.047306 0.319289 0.204442 -0.412012 0.369554 -0.372748 -0.207262 -0.131245 0.787546 -0.219727 -0.661142 0.687321 -0.287373 0.096932 0.166862 0.371689 -0.211244 -0.427148 -0.955958 0.128668 -0.275941 -0.194879 -0.972715
電 1.036987 -0.560589 0.507701 -0.779449 -1.406999 0.195320 -1.224288 -0.796214 0.083842 -1.213192 0.087431 0.527894 -0.832525 0.653863 -0.629254 -0.041892 -0.981971 0.498408 -0.446773 0.646437 0.696312 0.848359 -0.236316 -0.962881 0.122076 -0.074228 0.711425 0.412377 -0.904385 -0.633683 0.484600 0.553025 1.768458 -0.928536 0.354418 0.658720 0.266761 -0.117892 0.751050 0.283415 1.283895 0.394883 0.244377 -0.080188 -0.148831 -0.892219 -0.251864 0.504203 0.873359 -0.678172
美 -0.954244 -0.625737 -0.212786 -0.610339 -0.290490 -0.054740 -0.768466 -0.576013 0.134681 0.092953 -0.168125 0.653052 -0.514326 0.143995 -0.109286 0.279448 -0.216593 -0.135198 -0.025936 0.298828 -0.486432 -0.048864 -1.218596 -0.411653 0.370557 -0.200843 0.094299 -1.202492 -0.225076 -0.012546 -0.448495 0.518837 0.123017 -0.085762 -0.615115 0.012664 0.202326 -0.261537 -0.783867 -0.504244 -0.123164 0.299666 0.295600 0.942151 0.484714 -0.193676 0.927869 -0.034362 -0.142870 -0.225068
府 -0.040172 0.290119 0.020698 0.281237 -0.739130 0.606503 0.009347 -0.644525 -0.231532 0.066241 -0.444121 -0.035976 -0.262507 -0.403139 0.209045 0.569351 0.343369 0.726897 -0.904416 -0.298375 0.335276 -0.691051 -0.477208 -0.337858 -0.007689 0.028641 0.431233 -0.907799 0.101213 0.351434 -1.361721 -1.063537 0.827945 0.115237 -0.231789 0.057350 -0.050563 -0.349463 0.188567 0.223289 -0.251116 1.284590 0.418389 0.479094 1.118784 0.051757 0.305099 -1.170441 -0.120203 -0.380853
通 0.683808 -0.388276 0.150383 0.044483 -0.912260 0.430297 -0.505364 -0.149298 0.374751 -0.142697 -0.287096 0.206808 -0.293982 0.401733 0.128433 -0.194294 -0.543610 1.147746 0.226240 0.315563 0.331352 0.397436 0.231074 -0.155047 -0.239715 -0.150060 -0.143856 -0.034694 0.111292 0.936115 -0.594946 -0.311770 1.015553 -0.871146 0.504771 0.492024 0.292090 0.106963 -0.193716 -0.016706 -0.598856 -0.280229 0.785482 0.838833 0.455848 -0.687924 0.534773 0.065949 -0.139388 -0.119070
得 0.142573 -0.024305 -0.063029 0.632181 -0.144902 0.164019 -0.700271 -0.781552 0.529677 0.332003 0.224679 -0.264168 -0.314193 0.543772 -0.094426 -0.321093 0.242688 0.149184 0.249810 0.606905 0.228619 0.185930 -0.371390 -1.145793 0.067589 -0.642155 0.313626 -0.802506 0.657861 0.182980 -0.431401 0.618504 0.132671 0.366839 -0.333565 0.357940 -1.124490 -0.148122 -0.457685 -0.503039 0.087757 0.068306 0.425968 0.010666 0.207792 -0.192806 0.062657 -0.097275 0.232031 -0.093119
產 1.177684 -1.677779 -0.313176 0.354700 -0.205241 0.373722 -0.245599 -0.289622 0.146434 1.012252 0.169015 -0.738424 -0.621457 -0.223159 -0.067376 -0.595914 -0.007906 -0.056951 -0.653839 -0.857298 0.183544 0.409202 -0.373012 -0.320785 0.230144 -0.547037 1.021657 -0.845558 -0.930692 -0.305065 0.055743 -0.418675 0.572395 0.143339 -0.281541 0.287634 -0.738218 0.268575 1.132148 -0.580566 0.567742 -0.519356 0.087849 0.747192 0.485328 -0.574976 0.152980 -0.159591 0.468849 -0.934749
入 -0.276102 -0.721941 0.158729 0.036552 -0.615295 -0.049882 -0.257271 -0.838232 0.756748 0.466883 0.023824 0.317322 -1.011663 0.561935 0.778885 0.005715 0.032992 0.566082 -0.233104 0.111975 -0.484437 -0.222259 -0.899086 -0.638845 -0.305211 0.013049 0.247872 -0.092775 0.394048 -0.089228 -0.600369 0.125375 0.572427 -0.324912 -0.405371 -0.699130 -0.312835 0.402531 -0.344749 0.420016 0.353213 -0.228145 0.514258 0.311966 -0.337224 0.104948 0.066839 -0.197750 -1.230817 0.040278
共 0.408330 -0.151327 -0.726994 0.003167 -0.047982 -0.063715 -0.136892 -0.716756 -0.032202 0.269931 -0.075458 0.521147 -0.102274 0.697979 -0.671761 0.193119 -0.318805 0.382428 -0.414282 -0.330050 0.404152 0.146864 -1.054276 0.147846 -0.478825 0.273167 0.699561 -1.188641 -0.626983 0.249316 -0.499175 -0.675817 0.564623 -0.106852 -0.510061 0.047486 0.304887 0.417386 0.210709 -0.361271 0.037424 -0.021417 0.163422 1.119613 0.994097 -0.364703 0.325434 -0.453464 0.119946 -0.295749
重 -0.251196 -0.381839 0.070347 0.095022 -0.080717 0.330067 -0.674659 -1.066855 -0.217028 0.674394 0.145278 0.578208 -0.419175 0.099638 0.492166 -0.479927 0.499872 -0.624766 -0.286707 0.183168 0.326715 0.464361 0.390270 -0.631677 0.045818 -0.083240 0.263253 -0.199200 -0.475320 0.063162 -1.012159 -0.027641 0.376257 -0.240536 -0.148443 0.095821 -0.480438 -0.070490 0.294678 0.066239 -0.338346 0.043861 0.154542 0.638121 0.191884 -0.393409 0.016696 -0.600040 -0.333911 -0.407244
當 0.440141 -0.083813 -0.119643 -0.222095 -0.177224 -0.136488 -0.642440 -0.675682 0.234202 0.135323 0.073152 0.233681 -0.395575 0.179612 0.306385 -0.246124 0.050009 0.106219 0.390921 0.734961 0.154205 -0.390223 -0.367250 -0.737132 -0.061559 -0.364499 0.307974 -0.470910 0.514733 -0.259565 -0.562171 -0.179372 0.256176 0.264499 0.141522 -0.055401 -0.341510 -0.081072 0.340866 -0.268518 -0.009675 0.172155 0.007618 0.381029 0.313997 -0.281285 0.198723 -0.387623 0.236522 -0.411513
者 0.054498 0.017875 -0.325685 0.373881 0.503108 0.155313 -0.852556 -0.757931 -0.188404 -0.116165 0.484747 -0.334175 -0.286537 0.393252 0.508442 0.611874 -0.173579 0.079286 0.073044 -0.080957 0.547164 0.063844 -0.457707 -0.401133 -0.448183 0.277706 0.220379 -0.253989 0.375398 -0.081079 -0.550093 0.218496 0.370326 0.424395 0.157930 0.298473 -0.543892 0.256472 -0.162374 -0.794892 -0.523713 -0.149138 -0.257419 -0.059284 0.300038 -0.527814 0.697317 -0.628190 0.257442 -0.622872
朝 -0.267555 -0.648851 -0.299046 -0.420879 -1.232167 -0.057999 -1.105029 -0.667853 -0.322418 1.076475 0.420107 0.052682 0.289170 -0.317759 0.667727 0.186766 0.628180 -0.071558 -0.077810 0.190242 -0.247768 -1.213753 -0.227701 -0.155826 -0.352026 0.841604 0.132001 -1.050418 1.161389 0.184770 -0.786887 -0.458884 -0.675258 -0.224796 -0.677885 -0.227966 0.506686 0.340810 0.133353 0.476478 -0.050959 0.188565 0.673926 -0.523725 0.685098 -0.501172 0.572511 -1.187016 -0.756545 0.879226
事 0.358320 0.556687 -1.086828 -0.123094 0.296517 0.267309 -0.754937 -1.064520 -0.466221 0.180518 0.284393 0.643293 -0.291507 -0.480076 -0.547629 -0.170167 -0.023189 -0.088287 0.302114 0.284413 0.112480 -0.472746 -0.231377 -0.548728 0.633095 0.299695 0.239874 0.228890 -0.239390 -0.129747 -0.701479 0.349200 0.779103 -0.472350 -0.484997 0.315272 0.429797 0.101014 -0.061402 -0.871481 -0.269403 0.236807 0.004117 0.619992 0.821087 -0.092255 0.199891 -1.408524 -0.151278 -0.045154
原 0.241170 -0.834353 0.068448 -0.151073 0.470396 -0.296629 -0.846425 -0.649714 0.074018 0.515232 -0.096293 0.292986 -0.020945 0.230699 0.351499 -0.766147 -0.346717 0.587401 0.182537 0.203241 0.083222 -0.362866 0.274544 -0.058964 -0.449283 0.209132 0.466376 0.166815 -0.094824 -0.411483 -0.885112 -0.644277 1.133954 0.150281 -0.200403 -0.447774 -0.196645 -0.305830 0.506988 0.773739 0.861616 0.858607 0.047013 0.147108 0.097146 -0.605325 0.014211 0.412501 0.069490 -0.699758
將 0.109493 -0.110396 -0.270990 0.242731 -0.109872 0.044262 -0.146338 -0.565281 0.147627 0.005654 0.331021 -0.081770 -0.483917 0.103173 -0.106923 0.370430 -0.092348 0.081430 0.071264 -0.017165 -0.042916 -0.453061 -0.315644 -0.473649 -0.298408 0.071477 0.650785 -0.290347 0.661734 0.043980 -1.037626 0.010798 0.578294 -0.182319 -0.183536 0.243178 -0.189867 -0.006252 0.200010 -0.052496 0.289085 -0.059979 0.127253 0.007745 0.290226 -0.303074 0.194759 0.202814 0.034546 0.217519
至 -0.233695 0.076780 -0.050714 -0.016699 -0.486987 -0.192396 -0.114503 -0.425638 -0.263548 1.284601 -0.619678 0.372333 -0.550047 0.564367 0.143294 0.221946 -0.138167 0.778605 0.530081 0.659234 -0.117945 0.145579 -0.271094 0.096518 0.582500 0.226653 0.198424 -0.665194 0.794534 -0.698763 -0.746864 -0.494087 0.557806 -0.106844 -0.161040 0.590541 -0.457184 0.614136 0.267232 0.945895 -0.087741 -0.439820 0.101640 0.089716 -0.059746 0.254367 0.434930 -0.185841 -0.212407 0.309248
平 -0.179894 0.157165 -0.741080 -1.504217 0.291838 -0.031362 -0.565232 -0.510919 -0.282209 0.808832 -0.027850 0.380932 -0.686861 0.379412 0.079943 -0.880497 -0.707392 0.574063 -0.145665 0.136069 -0.323330 0.261386 0.163656 0.283091 0.084850 -0.016198 0.428580 -1.211050 0.803811 -0.132861 -0.377104 -0.691639 0.431868 -0.511403 -0.232323 0.065393 -0.098853 -0.606856 0.721288 0.471417 0.540733 0.333569 0.715486 0.098804 -0.071490 -0.022336 0.305951 0.499763 0.031211 -0.040356
員 0.104058 0.605421 -1.287282 0.094313 0.398784 0.515289 0.393209 -0.842943 0.710607 -0.438410 0.280527 -0.460420 -0.462125 0.264528 0.089393 0.368514 -0.089168 0.363374 -0.293750 -0.304544 0.168682 0.220756 -0.658079 0.060920 0.728946 0.485358 0.099273 -0.171339 0.115690 -0.178345 -1.155050 -0.330783 0.969011 -0.134145 -0.768387 0.394832 -0.334326 0.612676 0.427468 -1.127579 -0.000383 0.444592 0.117089 1.486553 0.874936 0.073373 0.656165 -1.546633 0.029554 0.007246
城 0.744075 0.057717 0.337010 0.203954 0.287097 -0.321672 0.127317 -0.886118 -0.217012 0.561830 0.006990 1.025100 -0.200202 0.070314 -0.544323 -0.642333 0.937631 0.134498 0.903784 -0.546426 -0.552768 -0.114920 -0.341326 -0.765911 0.372779 -0.741206 0.518993 -0.720264 -0.265257 0.876284 -1.543648 -0.371334 -0.330161 0.182410 -0.169265 -0.335270 0.062029 -0.258776 0.726259 1.141476 0.415390 -0.080710 -0.284459 -0.452436 0.175185 -0.238840 0.756845 0.305072 -0.751328 0.292306
面 -0.274473 -0.038283 -0.131870 -0.406980 -0.380829 0.150122 -0.565020 -0.675891 0.082250 0.128300 -0.154471 0.337495 -0.154889 0.579477 -0.309064 -0.569956 0.043858 0.130426 -0.252727 -0.376406 0.049893 0.159189 0.009412 -0.610799 0.835388 0.261273 1.000368 -0.733841 0.577728 -0.165290 -0.423530 -0.791470 0.506282 0.043217 0.144919 -0.319106 -0.021493 -0.017390 0.892459 0.051479 0.265948 -0.209474 0.754318 -0.366203 -0.657827 -0.110507 0.635515 -0.203534 0.129749 -0.349667
相 0.268147 -0.551525 -0.855556 0.060846 0.010312 0.300653 -0.690971 -0.332200 0.442507 0.086534 0.356701 0.346009 -0.410362 0.282805 0.311542 -0.364548 0.167943 0.143192 0.368000 0.054457 1.262109 -0.300961 0.228658 -0.130234 -0.137237 -0.029141 -0.200670 0.069231 0.586115 0.068061 -0.273225 -0.294787 0.386903 0.027639 0.671694 0.867403 0.242759 -0.954653 0.672868 0.173963 0.112102 0.800244 0.410699 -0.202730 0.494004 -0.233696 0.741726 -0.255549 0.399119 -0.594075
但 -0.121177 -0.082956 -0.179521 0.117806 -0.075832 -0.212676 -0.510868 -0.444313 0.361844 0.375982 0.243826 -0.053176 -0.403338 0.697769 0.018790 -0.125752 0.410108 -0.059222 0.232007 0.391386 0.305631 -0.201666 0.153631 -0.660537 0.039593 -0.126779 0.450617 -0.449816 0.779326 -0.034133 -0.773131 -0.176843 0.383848 0.017492 0.292513 0.187325 -0.216193 -0.417125 -0.028336 -0.144840 -0.031225 0.134230 0.174859 0.002930 0.438631 -0.372019 0.604494 -0.538452 0.025593 -0.543833
制 0.047636 0.226351 -1.094290 0.431268 -0.672707 0.490685 -0.056271 -0.569561 0.072373 0.554693 -0.348000 -0.460575 0.280057 -0.091315 0.093938 0.341686 0.409174 0.925310 -0.619056 -0.093885 -0.331524 -1.242269 0.228660 0.045141 -1.028261 -0.409754 0.783966 -0.624209 0.162111 0.183007 -1.588760 -0.116755 -0.416118 -0.918020 0.262384 0.226571 -0.290108 -0.306084 0.586583 -0.779671 -0.359523 0.176699 1.448033 0.049128 0.011329 -0.530632 -0.208765 -0.863774 0.163076 -0.645697
明 0.071802 -0.451449 -0.047245 0.240529 -0.529985 -0.042149 -0.987173 -0.354765 -0.061578 0.348985 0.120136 0.238282 0.063464 0.029208 0.294332 -0.237832 -0.045260 -0.181802 0.265813 0.631632 -0.063717 -0.500753 -0.421938 -0.774919 0.026949 -0.252083 0.270187 -0.447737 0.923036 0.156883 -0.138776 -0.218928 0.041709 0.476234 0.167639 0.362711 0.064633 -0.260466 0.554974 0.496375 -0.050162 0.316028 0.218662 0.220500 0.331332 -1.089178 0.511305 -0.161645 0.140937 0.888484
英 -0.371545 -0.726749 -0.551632 -0.431087 -0.089374 -0.777105 -0.222243 -0.083440 0.217112 0.317564 -0.344500 0.141931 0.288146 0.420659 0.294860 1.537944 -0.130659 -0.010216 0.195647 0.214382 0.245403 -0.842014 -0.307028 -0.112555 0.088261 -0.360932 0.842415 -1.178370 0.120255 0.385450 -0.415175 0.470999 0.589007 -0.057500 -0.086910 0.806717 -0.603306 -0.401424 -0.467077 -0.553503 0.078813 0.253071 0.820014 0.328946 0.668334 0.953268 1.245929 -0.003245 0.426549 -0.129875
總 -0.056660 0.429392 -1.088177 0.174676 0.149735 0.055663 0.081598 -0.629417 0.816518 0.013108 -0.465422 -0.247842 -0.801568 -0.799534 -0.434844 -0.297457 -0.184545 0.616866 0.317122 -0.141155 0.121081 0.000464 -1.077418 -0.214307 -0.031294 -0.272875 -0.115681 -1.220207 -0.050711 -0.625311 -1.092959 -0.505987 0.354738 -0.119571 -0.770952 -0.130963 0.639528 -0.262802 0.686703 -0.522091 1.271403 0.373353 0.900679 0.799632 0.447491 -0.108949 0.392027 -0.554071 0.684321 0.246154
語 -0.290405 -0.569153 -0.331239 0.523089 0.188452 -1.204353 -1.307909 0.116758 1.262495 -0.500113 -1.191657 0.673015 0.989041 0.792528 1.059607 0.554818 -0.971055 0.936412 -0.330190 0.217925 0.950210 -2.515565 -0.450251 -0.236941 -0.273642 0.680617 0.031781 0.192809 0.195992 0.590033 0.152538 0.488276 0.349121 -0.157421 0.850963 0.032718 -0.676766 0.072274 -0.501271 0.643870 0.393778 -0.439555 -1.271555 0.377758 0.046531 -0.627308 1.840947 0.227419 -0.541155 -0.975885
治 0.768650 0.203113 -0.827247 0.082138 -0.028252 0.051105 -1.080059 -1.047202 0.021131 0.620860 -0.126474 -0.350822 0.410869 0.129016 -0.279805 0.900697 -0.359601 0.588457 -0.883489 0.122232 0.179709 -1.105340 -0.513559 0.164174 -0.567479 -0.064698 0.337327 -0.593760 -0.340399 0.450632 -0.694276 -1.163526 -0.089338 0.444146 0.085835 0.066009 -0.133252 -0.137790 0.062586 0.244574 -0.543507 1.166580 0.504158 0.191806 -0.009243 0.258746 0.121428 -1.216150 0.180011 -0.050670
量 -0.291794 -1.331415 -0.355715 0.256203 -0.340809 0.090008 -0.298792 -0.736190 0.455373 1.103417 -0.153182 -0.735449 -0.684507 0.585481 0.378748 -0.724053 -0.300387 0.831846 -0.163634 0.458859 0.180029 0.689034 0.251566 0.005257 0.050041 -0.421778 0.471953 -0.034398 0.368280 -0.820021 -0.120336 0.688560 0.367521 -0.348135 -0.402615 0.678941 -0.368347 -0.792817 0.852989 -0.061837 0.688087 -0.582170 0.099620 0.599236 -0.351000 -1.229425 0.535748 0.431719 0.489158 -0.440171
馬 -0.439733 -0.792089 -0.209174 0.727679 0.507566 0.240624 -0.451583 -0.203149 -0.402400 0.098476 -0.293115 0.409526 -0.061191 -0.098368 0.693071 0.672181 -0.811085 -0.047868 0.869938 0.454209 0.234053 -0.457568 -1.058254 -0.590299 -0.536926 -0.366523 0.201563 -0.513536 0.534236 0.535489 -1.127502 -0.005853 -0.144155 0.190665 -0.149592 0.413506 0.641095 0.624102 0.372587 -0.126637 -0.362330 -0.019924 -0.513804 -0.060350 -0.368703 -0.192815 -0.381699 0.570435 -0.306366 -0.175877
表 0.287415 0.160726 -0.352199 -0.428279 0.213414 0.018989 -0.387663 -0.720417 0.636307 -0.520171 0.408899 0.164416 0.489417 0.783352 0.114258 -0.072911 0.148000 0.100259 -0.406046 0.056469 0.392832 -0.345124 -0.134753 -0.648625 0.445512 0.327061 0.139760 -0.396231 0.186387 -0.591373 0.129647 -0.216831 0.697825 0.546963 0.578994 0.122621 -0.235145 0.566113 0.809277 -0.257754 -0.103569 -0.100143 0.186432 0.745214 0.769100 -1.039337 1.190043 -0.151559 0.467936 0.489890
數 -0.533561 -0.542651 -0.313904 0.940193 -0.316045 -0.423683 -0.288644 -1.394741 0.393085 0.285552 -0.038856 -0.093784 0.199971 0.947303 -0.328920 -0.889675 -0.011222 0.799032 0.274515 0.289158 0.946540 0.614294 -0.401953 0.198826 -0.221658 0.192942 0.364309 -0.431336 0.618781 -0.526300 -0.269445 0.397567 0.200438 -0.243505 -0.197240 0.327467 -0.290343 -0.331015 0.578420 -0.200484 0.150286 -0.367240 -0.006800 0.773992 0.523660 -0.429407 0.521257 -0.391078 0.405820 -0.836387
次 0.457361 0.103033 -0.152814 0.404925 0.422056 -0.366610 0.360787 -1.084108 -0.042064 -0.062977 0.347196 0.124852 -0.421915 0.516941 -0.168999 -0.066168 0.562897 0.264985 0.378145 0.460527 0.147986 -0.143587 -0.880507 -0.743428 0.149686 -0.241237 0.949925 -0.142027 0.161548 -0.982265 -0.105260 0.207462 -0.166320 -0.769138 -0.887718 -0.288508 -0.264821 0.277878 -0.210247 0.856109 -0.637228 -0.290969 1.194605 1.074748 0.443558 -0.180354 0.727557 -0.231117 -0.170094 0.029785
性 0.000744 -0.862432 -0.281855 -0.867791 0.277309 0.385874 -0.873421 -0.464123 0.373487 1.174236 0.769755 -0.394245 0.217404 0.955793 -0.690458 -0.048147 -0.263675 -0.287891 -0.359225 0.922591 0.611979 0.674380 0.407308 -0.012037 -1.016190 -0.460750 -0.022603 0.229341 -0.294630 -0.187949 -0.198999 0.065444 1.109686 0.469505 1.001852 0.255019 -0.372073 -0.764586 0.211031 -0.237339 -0.149619 0.153646 0.263860 0.530457 0.173145 -0.885900 0.142582 -0.556412 -0.280265 -1.238531
機 0.229859 -0.666624 -0.722606 0.176781 -1.208606 -0.137532 0.305855 0.019398 0.017150 -0.107213 -0.066519 0.474865 -0.402520 0.212940 -0.320158 -0.096304 -0.358004 -0.608209 -0.078878 -0.611834 -0.121261 0.297658 -1.060286 -0.279469 0.561303 0.006309 0.679414 0.683446 -0.381934 0.336700 -0.751415 -0.129118 0.872140 -0.992793 0.436660 1.221701 -0.245063 -0.434707 0.258787 -0.900869 -0.099705 0.371203 1.113853 0.449269 -0.406979 -1.426956 -0.119234 -0.695625 0.292538 -0.415227
元 -0.845934 -0.696350 0.188303 0.219395 -1.038304 0.043227 -0.675164 -0.780210 0.286427 1.287086 0.123608 0.225333 -0.625264 -0.396373 -0.349133 -0.274060 -0.329874 0.025656 0.273768 0.064018 0.119270 -0.928304 -0.429282 0.890600 -0.537851 0.109337 -0.266119 -1.293318 -0.335236 -0.577943 -0.681679 0.736060 0.564417 -0.444028 0.102429 -0.033958 -0.260751 -0.492559 0.516923 1.165236 -0.397174 -0.462487 -0.109908 0.139810 0.881366 -0.349393 0.571514 -0.495447 0.306425 1.112811
天 0.047617 0.634404 -0.086860 -0.194447 0.118938 0.393946 -0.748600 -0.634002 0.141787 0.352148 -0.359634 0.756420 -0.453000 -0.300087 0.423254 0.402562 0.324568 0.088577 0.975634 0.828511 -0.523033 0.118503 0.471816 -0.320861 -0.518962 0.244889 0.213399 -0.503986 0.991835 -0.052286 0.298877 -0.275988 0.710254 0.051808 -0.069113 0.475382 -0.169831 0.155979 1.091656 0.292422 -0.579320 0.058325 0.370497 -0.040032 -0.101673 -0.537158 -0.132474 0.758762 0.401228 0.246836
議 0.844362 0.725110 -0.879032 0.174390 0.623777 0.089228 0.411804 -0.686098 0.369450 -0.503592 0.460986 0.320347 -0.746328 0.816724 0.057749 0.057077 -0.051957 0.843786 -0.540223 0.342353 0.461864 -0.529160 0.243065 0.020473 0.421661 -0.075214 0.407296 -0.982420 -0.258831 -0.068835 -0.660948 -0.483853 0.586348 0.003020 -0.245633 -0.449213 -0.282278 0.472207 -0.227313 -0.934326 -0.338595 0.817582 1.362375 1.017169 1.778111 -0.056524 0.829036 -0.873273 -0.651959 -0.072882
運 0.405189 -0.126157 -0.265444 -0.049233 -0.293041 1.460449 0.032149 0.179148 0.747489 1.002931 0.166424 0.507508 -0.455103 0.109892 -0.179665 0.496652 -0.033761 0.589538 0.151704 0.400210 0.244615 0.995269 -0.419357 -0.744808 -0.003131 -0.125657 -0.504283 0.129024 -0.129760 -0.015106 -1.383275 -0.413394 0.306649 -0.566116 -0.502349 0.587000 0.265250 0.453477 0.281213 -0.458535 -0.781263 -0.405127 0.166459 0.829303 -0.162316 -0.985113 0.012270 1.185366 -0.471915 -0.928172
關 0.178181 -0.320243 -0.714887 0.178092 0.050256 -0.156984 -0.617370 -0.555858 0.525032 0.547213 0.308691 0.903185 -0.421554 0.157250 0.227829 -0.223744 -0.308806 0.032677 -0.404080 -0.323540 0.622775 -0.348514 0.545806 -0.171101 0.328664 0.277157 0.282261 0.131789 0.068843 0.620296 -0.632270 -0.442716 1.015441 0.220946 -0.280778 0.781522 0.766476 -0.621585 0.010295 -0.483039 -0.227409 0.345251 0.246090 0.235240 0.413491 -0.069187 0.574243 -0.470009 -0.249210 -0.051735
黨 0.360726 0.204401 -1.170166 0.693518 0.725535 0.239492 0.715389 -0.537860 0.359658 0.426717 0.471554 0.142721 -0.611729 0.868528 0.064025 0.569028 0.244617 0.368880 -0.726056 -0.483587 1.180942 0.157052 -0.929610 -0.883320 -0.351001 -0.007489 0.471332 -0.367214 0.097285 0.224121 -0.403221 -0.558244 0.194503 0.978866 -0.258592 -0.573497 -0.820079 1.214666 0.844204 -0.805532 0.192358 0.816188 0.785480 1.328553 1.923669 0.975573 0.380767 -0.894600 0.726621 -0.357206
拉 -0.225020 -1.185050 -0.406519 0.765019 1.123094 -0.306535 0.055635 -0.352536 -0.028836 -0.643904 -0.188471 0.281830 0.180209 0.645370 0.059020 0.411942 -0.712090 0.129722 0.411865 0.949069 0.026341 -0.995807 -0.902829 -0.206468 0.265836 -0.707215 0.256226 -1.192300 0.240362 0.474771 -1.142647 0.049071 -0.516691 0.148395 0.572169 0.258205 0.183502 0.888555 -0.530685 0.660254 0.266233 0.518738 -0.430136 0.533482 -1.023595 -0.427376 0.010592 0.598567 -0.049267 -0.238868
道 -0.043459 0.775326 0.045378 0.065290 -0.737388 0.944801 -0.989631 0.218737 -0.005305 -0.203862 0.246947 0.421849 0.092905 0.331085 -0.559539 -0.540044 -0.566800 1.000165 0.835130 0.040305 -0.198842 1.105993 0.626427 -0.454259 -0.149061 0.731292 -0.086999 -0.733100 0.613624 0.577898 -1.009649 -0.981654 0.449029 -0.624482 0.279445 0.389431 0.297900 0.713040 0.370888 0.420573 -0.281679 -0.409981 0.542611 0.124926 -0.111151 -0.786899 -0.229735 0.850074 -0.282810 -0.333643
基 -0.712002 -0.334019 -0.092740 1.336340 0.708836 0.622592 -0.693583 -0.556863 0.712397 -0.408724 0.416037 0.353453 -0.434031 -0.657761 0.632680 -0.024670 -0.220433 0.185341 0.299049 -0.084843 0.553912 -0.783835 0.062041 -0.307654 -0.357418 0.429911 0.353868 -0.849089 -0.442428 -0.458943 -0.749368 -0.223649 0.641615 -0.244937 0.363383 -0.139566 0.118695 -0.503023 0.684503 -0.048997 -0.795580 0.745349 -0.189508 0.681607 -0.941607 -0.437243 -0.019400 0.500452 0.012971 -0.629724
聯 -1.049473 0.214073 -1.141360 0.100963 0.316910 0.521049 0.142457 0.014674 0.770856 0.170031 0.109628 1.000920 -0.329142 1.130041 -0.195071 0.695960 0.260584 -0.085780 0.015626 -0.355717 0.283336 -0.214376 -0.669197 -1.217270 -0.086153 0.130171 0.884867 -0.854913 -0.642966 0.182162 -0.208859 -0.397168 0.235665 -0.382035 -0.815000 -0.126372 0.508299 0.201838 -0.783837 -0.458335 0.491196 0.260659 0.687374 0.753828 0.943566 -0.148744 0.443240 -0.253506 -0.644038 -0.035738
山 -0.121542 -0.522460 -0.095393 -0.219736 0.897081 0.580711 -0.397490 -0.547783 -0.807099 0.516913 -0.256210 1.624488 0.475016 0.008915 0.375500 -0.303894 -0.176011 0.052723 0.900564 -0.283578 -0.318017 0.289431 0.442978 0.331092 0.846210 -0.518866 -0.100183 -0.296247 0.601366 1.122096 -0.558057 -0.421685 0.559975 0.648790 -0.773177 -0.806365 -0.226123 1.297727 0.967780 1.255566 0.641137 0.073407 0.773548 -0.278258 -0.534120 -0.075128 -0.544839 0.170174 -0.445153 0.391576
兩 0.031612 -0.270145 -0.198650 -0.046315 0.369261 0.073396 -0.204062 -0.933586 0.602697 0.050870 -0.035283 0.531477 0.170080 0.586390 0.000733 -0.546098 0.341424 0.065179 0.238649 -0.127165 0.720099 -0.154010 -0.225921 0.018612 -0.176867 0.457784 0.161226 -0.496348 0.562613 0.311159 -0.586307 -0.313702 0.549639 -0.703978 -0.371975 0.074390 -0.024760 -0.293820 0.253402 0.608428 -0.380524 -0.221225 1.079386 0.095061 0.151535 0.250288 0.753210 0.291771 0.165573 -0.269969
路 0.003726 0.714115 0.366394 0.078123 -1.004335 0.608871 -0.223763 0.369927 0.077090 0.156201 -0.123085 0.901273 -1.043931 -0.354312 -0.266820 -0.233321 -1.253832 0.465477 0.825631 -0.338111 -0.180619 0.781498 0.296509 -0.712790 0.449509 -0.210503 0.149950 -0.790131 -0.427665 0.782097 -1.648642 -0.645164 0.733725 -0.998577 0.324002 0.305451 1.188314 0.589233 0.153556 1.043676 0.104737 -1.312359 0.858577 -0.153572 0.117583 -0.823598 0.038520 0.380096 0.024991 -0.287393
院 0.455686 0.793714 -0.279599 0.602397 -0.038159 -0.283025 -0.911088 -0.557905 0.619237 -0.912398 0.176524 0.620012 0.250355 0.342720 0.054125 -0.192838 -0.396385 0.350703 0.138730 0.734996 -0.709575 0.500285 -0.293819 0.511270 0.174465 0.622236 -0.220251 -0.498689 -1.279238 0.113883 -0.818719 -0.308248 0.737292 -0.158962 -0.420843 -0.248360 -0.429787 -0.273885 0.807242 -1.239272 0.256327 1.223049 1.176312 1.372429 0.506446 0.420342 0.489818 -1.216250 -1.089003 0.310500
· 0.431614 -0.295724 -0.650194 1.049267 1.171579 0.342119 -0.846145 0.266741 0.699200 -1.219553 0.491257 -0.194154 -0.168260 0.114536 -0.017776 1.384860 -1.612221 -0.599345 0.280125 1.289771 0.703282 0.173637 -1.210616 0.156752 -0.038559 -1.520051 0.396122 -1.296904 0.546072 0.420952 -0.757576 0.790879 -0.935962 0.710911 -0.381590 0.270248 0.664199 1.264076 0.306198 -0.045189 0.163226 1.116312 -0.944752 0.539731 -0.805178 -0.252399 0.787163 0.487664 0.541392 1.160578
任 0.780853 1.291719 -0.702236 0.307670 0.329807 0.400133 -0.435603 -0.301848 0.641406 -0.338098 0.124458 -0.452158 -0.948568 -0.447937 0.193642 1.112679 -0.171786 -0.094518 0.679727 0.494075 0.119658 -0.016288 -0.609986 -0.087672 -0.228420 0.220060 -0.474766 -0.252086 0.151720 0.048377 -0.920451 -0.329273 0.658498 -0.040267 -0.430664 -0.106465 -0.440562 0.001425 0.466438 -0.168182 0.423800 0.959972 0.902088 1.221542 1.167869 0.109006 0.772440 -1.140059 0.937622 0.556179
式 -0.352576 -0.414762 0.785680 0.350081 -0.599519 0.034381 0.134783 -0.020046 0.337762 0.135966 0.194890 0.418316 0.318715 0.307879 -0.320617 0.734046 0.068553 0.423426 -0.737827 0.497579 0.336809 -0.634413 -0.069836 -0.801260 0.270883 0.191824 0.226741 -0.085199 -0.123273 -0.527209 -0.317298 0.080984 0.914038 -1.040630 0.686681 0.298251 0.015175 0.427293 0.800523 -0.540433 -0.188224 0.311847 0.670858 0.497175 0.805260 -0.886279 -0.034278 0.592706 -0.281927 -0.696085
港 0.256468 0.163926 0.087212 -0.173730 -0.993618 -0.427973 0.032963 -0.695545 0.175744 0.335512 -1.053987 0.730218 0.265485 -0.822297 0.903680 0.254522 -0.018127 0.875593 0.445991 0.115195 -0.221416 0.341660 0.059751 -0.596632 0.872817 -0.284006 -0.157388 -0.943415 -0.841771 0.164084 -0.840343 0.222884 1.419669 0.567997 -0.415175 0.462524 -0.156071 -0.656174 -0.572590 -0.003805 -0.125811 -0.110657 0.708011 0.725512 0.145395 0.753832 0.956040 -0.536787 0.364179 -0.075303
十 0.573980 0.207363 -1.025979 0.621858 -0.240109 0.502034 -0.409242 -0.445941 -0.253876 0.408035 -0.108516 0.279316 0.474206 0.128919 -0.265959 -0.623533 0.150310 0.202689 0.959439 0.254758 -0.060458 -0.358593 -0.246621 0.322333 -0.595849 0.582756 1.056390 -1.363023 0.311752 -0.625313 -0.163876 0.096001 0.124576 -0.681017 -1.211250 0.149884 -0.066642 -0.018669 0.508692 1.238784 -1.341129 -1.308589 0.467863 0.105716 0.492059 0.158986 0.444772 -0.018422 0.173757 0.691360
權 0.118885 0.375059 -0.677206 -0.102213 -0.378126 0.406499 -0.425046 -1.343426 -0.249951 0.188269 -0.053565 -0.576163 -0.566361 0.241637 -0.002442 0.912258 -0.397312 0.552523 -0.236868 0.164480 0.259482 -1.081684 0.044622 -0.198280 -0.360712 -0.183363 0.828047 -0.272681 -0.225361 0.444355 -0.805954 -0.302856 0.002931 0.347022 -0.526443 0.598066 -0.160676 -0.313234 -0.198517 -1.226348 0.063906 0.934107 1.259944 -0.833821 1.141828 -0.048582 0.189981 -1.058645 0.502921 -0.517879
河 0.733068 -0.544635 0.402160 0.250938 0.327211 0.803359 -0.719651 -0.327508 0.293933 0.605497 0.129114 0.147676 -0.538760 0.657563 0.910917 -0.612105 -0.222182 1.111669 0.068776 -0.534723 -0.502206 0.361217 0.005440 0.417307 0.805055 -0.743449 -0.387966 -0.172167 1.184728 0.925373 -1.443384 -0.452479 -0.678547 -0.422951 -0.481435 -0.335137 0.414236 0.482943 -0.502321 1.917439 -0.508149 -0.061234 1.111058 0.690670 -1.369315 0.901727 0.381143 0.965031 0.044613 -0.091282
古 -0.031397 -0.807725 0.352669 0.688177 0.419374 0.090873 -1.182345 -0.886620 -0.243494 0.577774 0.058866 0.697356 1.069584 0.345453 0.307109 0.145455 -0.081244 0.258314 1.118027 0.314270 0.000792 -1.148760 -0.619573 -0.404184 0.521036 0.073717 -0.535156 -0.238475 0.322981 -0.156484 -0.780311 0.101892 -0.628130 0.147839 0.264784 -0.765757 0.411349 0.651727 0.080580 0.269054 -0.030860 -0.051909 -0.564012 -0.127115 -0.112728 -1.179663 0.449215 0.342206 -1.097075 0.046828
二 0.535827 0.023280 -0.782122 0.770323 0.183013 0.298601 -0.346842 -0.302646 -0.029726 0.083617 0.257765 0.086166 0.194631 -0.085253 -0.351634 0.173755 -0.122238 0.111885 0.764289 0.208162 -0.058006 -0.287211 -0.324950 0.241171 -0.868312 -0.180393 1.392203 -0.993286 -0.151829 -0.483181 -0.095904 0.079877 0.463375 -0.674870 -0.551275 0.183434 -0.192424 0.042922 0.444689 1.679064 -0.838575 -0.574910 0.778484 0.324085 0.428539 0.188497 0.385241 0.062290 0.208634 0.272367
比 -0.710543 -0.946405 -0.697132 -0.036083 0.698090 0.081985 -0.555316 -0.141738 0.941960 0.109048 -0.092294 -0.113212 -0.429662 0.139957 -0.591394 -1.014147 -0.438790 0.220633 0.177366 0.785938 0.454653 -0.132165 -0.341452 -0.499518 0.305048 -0.713309 -0.668063 -1.096840 0.153256 -0.114878 -0.313809 0.391303 -0.269298 -0.181902 0.173192 0.603706 -0.330262 0.213966 0.403784 0.015322 0.132105 0.102682 0.349010 0.442074 -0.225960 -0.453433 0.255362 0.272560 0.175551 -0.648877
羅 -0.372796 -0.530040 -0.216670 0.909846 1.255174 -0.098437 -0.776988 -0.113656 0.235046 0.050752 -0.098844 0.250365 -0.520221 -0.047639 0.473242 1.314339 0.170429 0.498621 0.007805 0.462573 0.365185 -0.251283 -0.988527 -0.270740 -0.292836 -0.655548 -0.280212 -1.089373 0.612244 0.777133 -0.538237 -0.279855 -0.644971 -0.210471 -0.041199 -0.102802 0.838553 0.871451 0.200703 -0.060884 -0.334500 0.111822 -0.237313 0.014101 -0.984758 -0.421464 0.456907 -0.341289 -0.555055 0.076693
從 0.141586 -0.490596 0.086927 0.303467 -0.021794 -0.186138 -0.339881 -0.325435 -0.028704 0.319147 0.039564 0.240838 -0.569315 0.232927 0.113757 0.318959 -0.052887 0.407236 0.384362 0.623270 0.186157 -0.483377 -0.241845 -0.562653 0.129552 0.144475 0.402109 -0.412844 0.497227 0.001547 -0.559128 -0.177898 0.498272 0.015977 -0.051948 0.210575 -0.481522 0.019109 0.165045 0.248735 -0.178386 -0.259977 0.085919 0.151293 -0.465856 -0.389131 0.159501 -0.067612 -0.029950 -0.083739
水 0.473242 -0.639591 0.060417 -0.014563 0.004947 0.909792 -0.347634 0.222147 0.696768 1.045192 0.403241 -0.198904 -0.080985 0.481070 1.166996 -1.245193 -0.367270 -0.113094 -0.272923 -0.201534 -1.656432 1.171991 0.291559 0.041791 0.661596 -0.152575 0.785113 -0.164808 1.394517 0.129868 0.002260 -0.627552 1.141574 -0.372417 -0.155926 -0.539485 -0.352416 -0.240404 0.430998 0.807102 -0.226072 -0.250159 0.526405 0.205224 -1.081608 -0.212952 0.015539 0.510279 -0.242516 -0.916957
如 0.116269 -0.469407 -0.405484 0.160377 0.499326 0.228483 -0.456362 0.006326 0.356175 0.020109 0.300789 -0.060982 0.379670 0.262106 0.133199 -0.317762 -0.394730 0.135421 0.099507 0.179665 -0.148874 -0.239661 0.226395 -0.320562 0.111981 -0.108199 -0.018892 0.115589 0.444784 0.503020 -0.270592 0.318903 0.818491 0.271780 0.349738 0.388826 -0.482444 -0.099638 0.405436 -0.028230 0.024315 0.221718 -0.123701 -0.131061 -0.065925 -0.763263 0.580225 -0.160702 0.153428 -0.321743
